{"learner":{"attributes":{"best_iteration":"99","best_ntree_limit":"100","scikit_learn":"{\"use_label_encoder\": null, \"n_estimators\": 100, \"objective\": \"binary:logistic\", \"max_depth\": null, \"max_leaves\": null, \"max_bin\": null, \"grow_policy\": null, \"learning_rate\": null, \"verbosity\": 0, \"booster\": null, \"tree_method\": null, \"gamma\": null, \"min_child_weight\": null, \"max_delta_step\": null, \"subsample\": null, \"sampling_method\": null, \"colsample_bytree\": null, \"colsample_bylevel\": null, \"colsample_bynode\": null, \"reg_alpha\": null, \"reg_lambda\": null, \"scale_pos_weight\": null, \"base_score\": null, \"missing\": NaN, \"num_parallel_tree\": null, \"random_state\": null, \"n_jobs\": -1, \"monotone_constraints\": null, \"interaction_constraints\": null, \"importance_type\": null, \"gpu_id\": null, \"validate_parameters\": null, \"predictor\": null, \"enable_categorical\": false, \"feature_types\": null, \"max_cat_to_onehot\": null, \"max_cat_threshold\": null, \"early_stopping_rounds\": null, \"callbacks\": null, \"kwargs\": {\"seed\": 42}, \"classes_\": [0.0, 1.0], \"n_classes_\": 2, \"_estimator_type\": \"classifier\"}"},"feature_names":[],"feature_types":[],"gradient_booster":{"model":{"gbtree_model_param":{"num_parallel_tree":"1","num_trees":"100","size_leaf_vector":"0"},"tree_info":[0,0,0,0,0,0,0,0,0,0,0,0,0,0,0,0,0,0,0,0,0,0,0,0,0,0,0,0,0,0,0,0,0,0,0,0,0,0,0,0,0,0,0,0,0,0,0,0,0,0,0,0,0,0,0,0,0,0,0,0,0,0,0,0,0,0,0,0,0,0,0,0,0,0,0,0,0,0,0,0,0,0,0,0,0,0,0,0,0,0,0,0,0,0,0,0,0,0,0,0],"trees":[{"base_weights":[-3.2045758E-8,1.1850333E0,-9.372995E-1,-2.644568E-1,1.4744838E0,-1.470915E0,-3.6874007E-2,4.213432E-1,-8.2611656E-1,1.0654773E0,1.6472384E0,-1.7921962E0,-1.016548E0,-1.2174153E0,4.7425494E-1,3.4446128E-2,8.909458E-1,-1.3026108E0,1.4724719E-2,1.4163945E0,4.3824598E-1,1.7425615E0,1.4271712E0,-1.8128796E0,-1.1425316E0,-1.1305993E0,1.0033715E-1,-1.4520819E0,-7.0119584E-1,-8.233555E-2,9.332897E-1,-2.5391608E-1,6.289998E-1,7.5592977E-1,1.3181704E0,-1.5021108E0,-8.023366E-1,-1.7726868E-1,1.10405E0,1.572235E0,1.1826422E0,6.357437E-2,9.832684E-1,1.6765773E0,1.8448516E0,1.2796954E0,1.6770799E0,-1.8453187E0,-1.506396E0,-1.2943429E0,-5.1704305E-1,-1.2677451E0,-4.737109E-1,-3.035884E-1,4.3671405E-1,-1.5492672E0,-9.583368E-1,-9.7698635E-1,-1.6246891E-1,3.1285536E-1,-7.0627713E-1,7.081365E-1,1.4508922E0,9.650544E-2,-1.584435E-1,1.3667233E-1,3.3399796E-1,3.0226758E-1,1.5607001E-1,3.6857945E-1,4.792847E-1,-4.6211594E-1,-5.1422246E-2,-3.0095577E-1,-6.496763E-2,-1.0698919E-1,2.067625E-1,2.539871E-1,3.972665E-1,4.3238482E-1,5.046373E-1,3.05594E-1,4.7937968E-1,-2.35821E-2,3.7449837E-1,2.5231162E-1,4.5582592E-1,5.2419174E-1,4.7141713E-1,5.4172754E-1,5.6798744E-1,3.5098198E-1,4.8752955E-1,4.8160496E-1,5.4277694E-1,-5.677294E-1,-5.267638E-1,-4.6499637E-1,-7.280447E-2,-4.4954845E-1,-3.0927992E-1,-2.3972066E-1,6.0074244E-2,-3.9403534E-1,-1.3903633E-1,-1.7947257E-1,1.3087893E-1,-1.2179154E-1,1.8141633E-1,5.9132334E-2,2.6129723E-1,-4.7898757E-1,-2.4213971E-1,-3.1641442E-1,-8.809289E-3,-3.166678E-1,4.8232745E-2,-9.176878E-2,1.926819E-1,2.8806245E-2,2.9886663E-1,-3.218742E-1,-8.0938846E-2,8.1336014E-2,2.972521E-1,3.8554972E-1,4.9516717E-1],"categories":[],"categories_nodes":[],"categories_segments":[],"categories_sizes":[],"default_left":[0,0,0,0,0,0,0,0,0,0,0,0,0,0,0,0,0,0,0,0,0,0,0,0,0,0,0,0,0,0,0,0,0,0,0,0,0,0,0,0,0,0,0,0,0,0,0,0,0,0,0,0,0,0,0,0,0,0,0,0,0,0,0,0,0,0,0,0,0,0,0,0,0,0,0,0,0,0,0,0,0,0,0,0,0,0,0,0,0,0,0,0,0,0,0,0,0,0,0,0,0,0,0,0,0,0,0,0,0,0,0,0,0,0,0,0,0,0,0,0,0,0,0,0,0,0,0],"id":0,"left_children":[1,3,5,7,9,11,13,15,17,19,21,23,25,27,29,31,33,35,37,39,41,43,45,47,49,51,53,55,57,59,61,63,65,67,69,71,73,75,77,79,81,83,85,87,89,91,93,95,97,99,101,103,105,107,109,111,113,115,117,119,121,123,125,-1,-1,-1,-1,-1,-1,-1,-1,-1,-1,-1,-1,-1,-1,-1,-1,-1,-1,-1,-1,-1,-1,-1,-1,-1,-1,-1,-1,-1,-1,-1,-1,-1,-1,-1,-1,-1,-1,-1,-1,-1,-1,-1,-1,-1,-1,-1,-1,-1,-1,-1,-1,-1,-1,-1,-1,-1,-1,-1,-1,-1,-1,-1,-1],"loss_changes":[1.8608255E6,3.1042144E5,4.4945888E5,4.743819E4,4.3574625E4,8.5739875E4,2.1003653E5,1.0074666E4,2.712684E4,4.030964E4,9.093125E3,4.621125E3,3.0990906E4,1.2739375E4,6.2062688E4,5.2127515E3,1.4438281E3,4.311961E3,5.122318E3,4.276172E3,1.3417024E4,2.038875E3,4.8278438E3,3.3125E3,1.00765137E3,1.9886531E4,3.0630408E3,3.4679375E3,4.883536E3,2.7071908E4,1.5513031E4,3.2319788E3,8.3357104E2,1.1284268E3,1.485625E2,1.5732891E3,1.4495859E3,3.23627E3,2.0687988E2,1.0114844E3,3.1979766E3,6.5592344E3,2.0398809E3,1.3655312E3,2.211875E2,3.1226562E3,4.581875E2,1.267125E3,1.7580391E3,4.5792578E2,4.2003766E2,6.7126875E3,4.32108E3,9.528484E2,1.2797334E3,2.121875E3,1.064831E3,1.9436895E3,1.2849324E3,9.960021E3,6.8128145E3,1.1461199E4,1.3331406E3,0E0,0E0,0E0,0E0,0E0,0E0,0E0,0E0,0E0,0E0,0E0,0E0,0E0,0E0,0E0,0E0,0E0,0E0,0E0,0E0,0E0,0E0,0E0,0E0,0E0,0E0,0E0,0E0,0E0,0E0,0E0,0E0,0E0,0E0,0E0,0E0,0E0,0E0,0E0,0E0,0E0,0E0,0E0,0E0,0E0,0E0,0E0,0E0,0E0,0E0,0E0,0E0,0E0,0E0,0E0,0E0,0E0,0E0,0E0,0E0,0E0,0E0,0E0,0E0],"parents":[2147483647,0,0,1,1,2,2,3,3,4,4,5,5,6,6,7,7,8,8,9,9,10,10,11,11,12,12,13,13,14,14,15,15,16,16,17,17,18,18,19,19,20,20,21,21,22,22,23,23,24,24,25,25,26,26,27,27,28,28,29,29,30,30,31,31,32,32,33,33,34,34,35,35,36,36,37,37,38,38,39,39,40,40,41,41,42,42,43,43,44,44,45,45,46,46,47,47,48,48,49,49,50,50,51,51,52,52,53,53,54,54,55,55,56,56,57,57,58,58,59,59,60,60,61,61,62,62],"right_children":[2,4,6,8,10,12,14,16,18,20,22,24,26,28,30,32,34,36,38,40,42,44,46,48,50,52,54,56,58,60,62,64,66,68,70,72,74,76,78,80,82,84,86,88,90,92,94,96,98,100,102,104,106,108,110,112,114,116,118,120,122,124,126,-1,-1,-1,-1,-1,-1,-1,-1,-1,-1,-1,-1,-1,-1,-1,-1,-1,-1,-1,-1,-1,-1,-1,-1,-1,-1,-1,-1,-1,-1,-1,-1,-1,-1,-1,-1,-1,-1,-1,-1,-1,-1,-1,-1,-1,-1,-1,-1,-1,-1,-1,-1,-1,-1,-1,-1,-1,-1,-1,-1,-1,-1,-1,-1],"split_conditions":[9.715E-1,1E0,1E0,9.655E-1,1E0,1E0,1E0,1E0,1E0,9.665E-1,9.67E-1,1E0,1E0,1E0,1E0,1E0,1E0,1E0,1E0,9.635E-1,1E0,1E0,1E0,1E0,1E0,1E0,1E0,1E0,1E0,9.785E-1,1E0,9.615E-1,1E0,9.625E-1,1E0,1E0,1E0,1E0,7.356048E-1,1E0,1E0,1E0,1E0,9.64E-1,1E0,1E0,1E0,8.104449E-1,1E0,8.132718E-1,1E0,1E0,1E0,1E0,1E0,1E0,1E0,1E0,1E0,1E0,1E0,1E0,1E0,9.650544E-2,-1.584435E-1,1.3667233E-1,3.3399796E-1,3.0226758E-1,1.5607001E-1,3.6857945E-1,4.792847E-1,-4.6211594E-1,-5.1422246E-2,-3.0095577E-1,-6.496763E-2,-1.0698919E-1,2.067625E-1,2.539871E-1,3.972665E-1,4.3238482E-1,5.046373E-1,3.05594E-1,4.7937968E-1,-2.35821E-2,3.7449837E-1,2.5231162E-1,4.5582592E-1,5.2419174E-1,4.7141713E-1,5.4172754E-1,5.6798744E-1,3.5098198E-1,4.8752955E-1,4.8160496E-1,5.4277694E-1,-5.677294E-1,-5.267638E-1,-4.6499637E-1,-7.280447E-2,-4.4954845E-1,-3.0927992E-1,-2.3972066E-1,6.0074244E-2,-3.9403534E-1,-1.3903633E-1,-1.7947257E-1,1.3087893E-1,-1.2179154E-1,1.8141633E-1,5.9132334E-2,2.6129723E-1,-4.7898757E-1,-2.4213971E-1,-3.1641442E-1,-8.809289E-3,-3.166678E-1,4.8232745E-2,-9.176878E-2,1.926819E-1,2.8806245E-2,2.9886663E-1,-3.218742E-1,-8.0938846E-2,8.1336014E-2,2.972521E-1,3.8554972E-1,4.9516717E-1],"split_indices":[8,195,135,8,135,195,195,135,135,8,8,334,334,427,427,395,513,528,513,8,262,334,334,106,106,262,106,106,106,8,334,8,513,8,334,513,106,334,4,262,513,513,513,8,513,513,370,4,287,4,488,370,370,370,262,334,403,352,334,334,106,262,403,0,0,0,0,0,0,0,0,0,0,0,0,0,0,0,0,0,0,0,0,0,0,0,0,0,0,0,0,0,0,0,0,0,0,0,0,0,0,0,0,0,0,0,0,0,0,0,0,0,0,0,0,0,0,0,0,0,0,0,0,0,0,0,0],"split_type":[0,0,0,0,0,0,0,0,0,0,0,0,0,0,0,0,0,0,0,0,0,0,0,0,0,0,0,0,0,0,0,0,0,0,0,0,0,0,0,0,0,0,0,0,0,0,0,0,0,0,0,0,0,0,0,0,0,0,0,0,0,0,0,0,0,0,0,0,0,0,0,0,0,0,0,0,0,0,0,0,0,0,0,0,0,0,0,0,0,0,0,0,0,0,0,0,0,0,0,0,0,0,0,0,0,0,0,0,0,0,0,0,0,0,0,0,0,0,0,0,0,0,0,0,0,0,0],"sum_hessian":[1.675314E6,7.3987956E5,9.3543444E5,1.2315459E5,6.1672494E5,5.873531E5,3.4808128E5,5.544958E4,6.7705016E4,1.8313917E5,4.3358575E5,3.4406388E5,2.4328925E5,1.05170445E5,2.4291084E5,3.0402545E4,2.5047033E4,4.3215043E4,2.4489973E4,1.1743599E5,6.570319E4,3.0253456E5,1.310512E5,3.334461E5,1.0617786E4,2.2074753E5,2.2541729E4,7.230138E4,3.2869062E4,1.0978941E5,1.3312144E5,2.0473395E4,9.929149E3,1.9034365E4,6.012669E3,3.0893344E4,1.23217E4,2.0821096E4,3.6688772E3,7.045712E4,4.6978875E4,3.893721E4,2.6765979E4,1.8391456E5,1.1861999E5,8.241981E4,4.8631395E4,3.0152662E5,3.1919465E4,8.543208E3,2.0745771E3,1.8261916E5,3.8128367E4,1.0242502E4,1.2299227E4,6.0408805E4,1.1892577E4,2.1739266E4,1.1129798E4,6.721647E4,4.2572938E4,9.2769695E4,4.0351746E4,6.6064395E3,1.3866956E4,7.312621E3,2.6165286E3,9.204448E3,9.829916E3,4.5572876E3,1.4553811E3,3.0029438E4,8.639075E2,9.175073E3,3.1466262E3,1.7250754E4,3.5703418E3,1.6935776E3,1.9752997E3,3.2154035E4,3.830308E4,3.3681645E4,1.3297232E4,3.476591E4,4.171298E3,2.115624E4,5.609738E3,1.0996073E5,7.395384E4,6.566411E4,5.2955883E4,6.254869E4,1.9871123E4,3.1532414E4,1.7098979E4,1.9748194E5,1.04044695E5,3.08549E4,1.0645641E3,4.81034E3,3.7328684E3,1.4890109E3,5.8556635E2,1.7279878E5,9.820372E3,3.3538875E4,4.5894917E3,9.205432E3,1.0370707E3,7.9270425E3,4.372184E3,5.678408E4,3.6247295E3,1.077461E4,1.1179664E3,2.033502E4,1.4042472E3,9.446749E3,1.6830492E3,5.102667E4,1.6189796E4,2.3136883E4,1.9436057E4,3.6440402E4,5.632929E4,2.2053922E4,1.8297822E4],"tree_param":{"num_deleted":"0","num_feature":"565","num_nodes":"127","size_leaf_vector":"0"}},{"base_weights":[-2.2598113E-4,8.1994843E-1,-7.4372935E-1,-2.8404993E-1,1.0623814E0,-1.0918256E0,-1.2517707E-2,2.028822E-1,-7.785467E-1,7.0884806E-1,1.2194021E0,-1.3243937E0,-7.129492E-1,-6.281517E-1,4.4275454E-1,-2.2519094E-1,5.166749E-1,-1.0986639E0,-1.4179553E-1,9.6439177E-1,4.9026594E-2,1.3038472E0,9.914082E-1,-1.3982905E0,-1.0520205E0,-9.778854E-1,-2.573552E-1,-7.8030014E-1,-9.791491E-2,6.539112E-2,7.910158E-1,-3.5887915E-1,8.155043E-1,2.3086132E-1,7.4971926E-1,-1.1996443E0,-5.194791E-1,-3.833559E-1,4.9860385E-1,6.4700896E-1,1.1195564E0,-2.9783824E-1,4.6567726E-1,1.2402393E0,1.4022293E0,7.3239636E-1,1.1397489E0,-1.4110134E0,-9.504847E-1,-1.17085E0,-7.2687626E-1,-1.0266244E0,-2.9149568E-1,1.7185751E-2,-7.3174393E-1,-8.632649E-1,3.0122509E-3,-7.495181E-1,3.3030197E-2,3.1893614E-1,-4.7412953E-1,-1.4271344E-1,8.8485086E-1,-1.5278915E-1,1.10629655E-1,2.1677445E-1,4.0430325E-1,1.9680448E-3,1.6266996E-1,1.9447704E-1,3.1549564E-1,-3.7007022E-1,7.6888157E-3,-2.1259174E-1,-2.0939251E-2,-1.8794608E-1,5.527381E-2,9.713755E-2,3.2758775E-1,1.518478E-1,3.6064935E-1,3.6319244E-1,2.7659014E-1,-1.3972908E-1,1.4838383E-1,5.098731E-2,2.369169E-1,3.5147375E-1,4.0852478E-1,4.0222073E-1,4.294115E-1,1.8486291E-1,3.643566E-1,3.1205156E-1,3.8993338E-1,-4.3780932E-1,-3.993307E-1,-3.1157976E-1,-1.370337E-1,-3.6864683E-1,-2.2765085E-1,-2.5723985E-1,-4.0361222E-2,-3.2509983E-1,-1.606048E-1,-1.1100999E-1,1.1920685E-1,6.337017E-2,-1.4920601E-1,-2.5361505E-1,6.251422E-2,-3.5719258E-1,-2.1520032E-1,5.5066567E-2,-1.020883E-1,-2.5194934E-1,2.6674548E-1,-3.2401185E-2,1.864166E-1,4.1552454E-2,2.4690786E-1,-1.7834462E-1,1.0703007E-1,-9.3655005E-2,7.798156E-2,2.1783574E-1,3.5484642E-1],"categories":[],"categories_nodes":[],"categories_segments":[],"categories_sizes":[],"default_left":[0,0,0,0,0,0,0,0,0,0,0,0,0,0,0,0,0,0,0,0,0,0,0,0,0,0,0,0,0,0,0,0,0,0,0,0,0,0,0,0,0,0,0,0,0,0,0,0,0,0,0,0,0,0,0,0,0,0,0,0,0,0,0,0,0,0,0,0,0,0,0,0,0,0,0,0,0,0,0,0,0,0,0,0,0,0,0,0,0,0,0,0,0,0,0,0,0,0,0,0,0,0,0,0,0,0,0,0,0,0,0,0,0,0,0,0,0,0,0,0,0,0,0,0,0,0,0],"id":1,"left_children":[1,3,5,7,9,11,13,15,17,19,21,23,25,27,29,31,33,35,37,39,41,43,45,47,49,51,53,55,57,59,61,63,65,67,69,71,73,75,77,79,81,83,85,87,89,91,93,95,97,99,101,103,105,107,109,111,113,115,117,119,121,123,125,-1,-1,-1,-1,-1,-1,-1,-1,-1,-1,-1,-1,-1,-1,-1,-1,-1,-1,-1,-1,-1,-1,-1,-1,-1,-1,-1,-1,-1,-1,-1,-1,-1,-1,-1,-1,-1,-1,-1,-1,-1,-1,-1,-1,-1,-1,-1,-1,-1,-1,-1,-1,-1,-1,-1,-1,-1,-1,-1,-1,-1,-1,-1,-1],"loss_changes":[9.767208E5,2.038345E5,2.1383684E5,3.3018758E4,3.4663938E4,5.015075E4,7.59436E4,9.28117E3,1.38679375E4,3.2382695E4,8.32375E3,7.0970625E3,2.6130688E4,9.292895E3,2.0470686E4,4.0664202E3,2.655373E3,2.6473164E3,3.5214106E3,6.8168516E3,7.748925E3,1.97275E3,4.4896562E3,1.579125E3,2.9072656E3,4.5790703E3,1.03675E4,5.8168203E3,2.191552E3,1.0226749E4,7.0975703E3,2.8348977E3,1.6356299E2,1.2507406E3,6.720996E2,1.6024531E3,5.718572E2,2.2810752E3,6.4635693E2,3.5540176E3,1.6722734E3,3.8938477E3,2.3340605E3,1.59725E3,2.2009375E2,2.3834824E3,1.1828047E3,1.0403125E3,3.3305957E2,1.3156641E3,1.5584111E3,3.5810625E3,4.9121735E2,5.034666E3,3.1177256E3,3.865746E3,5.314442E2,6.368064E2,1.7747964E3,4.6256553E3,2.3903516E3,5.04911E2,3.4806367E3,0E0,0E0,0E0,0E0,0E0,0E0,0E0,0E0,0E0,0E0,0E0,0E0,0E0,0E0,0E0,0E0,0E0,0E0,0E0,0E0,0E0,0E0,0E0,0E0,0E0,0E0,0E0,0E0,0E0,0E0,0E0,0E0,0E0,0E0,0E0,0E0,0E0,0E0,0E0,0E0,0E0,0E0,0E0,0E0,0E0,0E0,0E0,0E0,0E0,0E0,0E0,0E0,0E0,0E0,0E0,0E0,0E0,0E0,0E0,0E0,0E0,0E0,0E0,0E0],"parents":[2147483647,0,0,1,1,2,2,3,3,4,4,5,5,6,6,7,7,8,8,9,9,10,10,11,11,12,12,13,13,14,14,15,15,16,16,17,17,18,18,19,19,20,20,21,21,22,22,23,23,24,24,25,25,26,26,27,27,28,28,29,29,30,30,31,31,32,32,33,33,34,34,35,35,36,36,37,37,38,38,39,39,40,40,41,41,42,42,43,43,44,44,45,45,46,46,47,47,48,48,49,49,50,50,51,51,52,52,53,53,54,54,55,55,56,56,57,57,58,58,59,59,60,60,61,61,62,62],"right_children":[2,4,6,8,10,12,14,16,18,20,22,24,26,28,30,32,34,36,38,40,42,44,46,48,50,52,54,56,58,60,62,64,66,68,70,72,74,76,78,80,82,84,86,88,90,92,94,96,98,100,102,104,106,108,110,112,114,116,118,120,122,124,126,-1,-1,-1,-1,-1,-1,-1,-1,-1,-1,-1,-1,-1,-1,-1,-1,-1,-1,-1,-1,-1,-1,-1,-1,-1,-1,-1,-1,-1,-1,-1,-1,-1,-1,-1,-1,-1,-1,-1,-1,-1,-1,-1,-1,-1,-1,-1,-1,-1,-1,-1,-1,-1,-1,-1,-1,-1,-1,-1,-1,-1,-1,-1,-1],"split_conditions":[9.725E-1,1E0,1E0,9.67E-1,1E0,1E0,1E0,1E0,1E0,9.685E-1,9.68E-1,1E0,1E0,1E0,1E0,1E0,1E0,1E0,7.5643504E-1,1E0,1E0,1E0,1E0,1E0,1E0,1E0,9.795E-1,1E0,1E0,9.8E-1,1E0,1E0,1E0,1E0,1E0,1E0,1E0,1E0,1E0,1E0,9.65E-1,1E0,1E0,1E0,1E0,1E0,1E0,1E0,1E0,1E0,1E0,1E0,1E0,6.497726E-4,1E0,1E0,6.497726E-4,4.0692642E-2,1E0,1E0,1E0,1E0,1E0,-1.5278915E-1,1.10629655E-1,2.1677445E-1,4.0430325E-1,1.9680448E-3,1.6266996E-1,1.9447704E-1,3.1549564E-1,-3.7007022E-1,7.6888157E-3,-2.1259174E-1,-2.0939251E-2,-1.8794608E-1,5.527381E-2,9.713755E-2,3.2758775E-1,1.518478E-1,3.6064935E-1,3.6319244E-1,2.7659014E-1,-1.3972908E-1,1.4838383E-1,5.098731E-2,2.369169E-1,3.5147375E-1,4.0852478E-1,4.0222073E-1,4.294115E-1,1.8486291E-1,3.643566E-1,3.1205156E-1,3.8993338E-1,-4.3780932E-1,-3.993307E-1,-3.1157976E-1,-1.370337E-1,-3.6864683E-1,-2.2765085E-1,-2.5723985E-1,-4.0361222E-2,-3.2509983E-1,-1.606048E-1,-1.1100999E-1,1.1920685E-1,6.337017E-2,-1.4920601E-1,-2.5361505E-1,6.251422E-2,-3.5719258E-1,-2.1520032E-1,5.5066567E-2,-1.020883E-1,-2.5194934E-1,2.6674548E-1,-3.2401185E-2,1.864166E-1,4.1552454E-2,2.4690786E-1,-1.7834462E-1,1.0703007E-1,-9.3655005E-2,7.798156E-2,2.1783574E-1,3.5484642E-1],"split_indices":[8,195,106,8,135,195,135,528,135,8,8,135,135,262,262,265,9,106,4,528,528,513,427,334,427,334,8,334,195,8,195,106,370,256,513,513,262,106,511,513,8,334,395,334,9,370,334,530,144,555,79,553,370,5,334,195,5,0,478,334,334,555,511,0,0,0,0,0,0,0,0,0,0,0,0,0,0,0,0,0,0,0,0,0,0,0,0,0,0,0,0,0,0,0,0,0,0,0,0,0,0,0,0,0,0,0,0,0,0,0,0,0,0,0,0,0,0,0,0,0,0,0,0,0,0,0,0],"split_type":[0,0,0,0,0,0,0,0,0,0,0,0,0,0,0,0,0,0,0,0,0,0,0,0,0,0,0,0,0,0,0,0,0,0,0,0,0,0,0,0,0,0,0,0,0,0,0,0,0,0,0,0,0,0,0,0,0,0,0,0,0,0,0,0,0,0,0,0,0,0,0,0,0,0,0,0,0,0,0,0,0,0,0,0,0,0,0,0,0,0,0,0,0,0,0,0,0,0,0,0,0,0,0,0,0,0,0,0,0,0,0,0,0,0,0,0,0,0,0,0,0,0,0,0,0,0,0],"sum_hessian":[1.6016982E6,7.6158144E5,8.401168E5,1.3712723E5,6.2445425E5,5.691637E5,2.7095316E5,6.909239E4,6.803485E4,1.9205236E5,4.3240188E5,3.5267584E5,2.1648784E5,1.1518962E5,1.5576353E5,2.9224656E4,3.986773E4,4.5273527E4,2.276132E4,1.384365E5,5.361585E4,3.1553006E5,1.1687181E5,2.774088E5,7.526704E4,1.3688536E5,7.960248E4,8.950592E4,2.5683691E4,7.475879E4,8.100475E4,2.5898393E4,3.3262646E3,1.7907436E4,2.1960297E4,3.85511E4,6.722428E3,1.6527504E4,6.2338174E3,4.5458395E4,9.29781E4,2.9258344E4,2.4357508E4,1.9164048E5,1.23889586E5,4.2561957E4,7.430985E4,2.697428E5,7.6659883E3,5.5119918E4,2.0147117E4,1.27809414E5,9.075953E3,5.042259E4,2.9179887E4,8.09337E4,8.57222E3,4.2969043E3,2.1386787E4,5.08585E4,2.3900287E4,7.39714E3,7.360761E4,2.1462074E4,4.4363184E3,2.8338103E3,4.924544E2,1.04096875E4,7.497747E3,1.6439172E4,5.5211245E3,3.7512516E4,1.0385829E3,4.7315225E3,1.9909058E3,1.1570992E4,4.956512E3,4.81638E3,1.4174375E3,3.6260566E4,9.19783E3,6.363734E4,2.9340764E4,2.4142754E4,5.1155894E3,1.2736177E4,1.1621331E4,1.2245625E5,6.918423E4,3.984943E4,8.404016E4,3.429866E4,8.263297E3,4.5811465E4,2.8498387E4,1.6804723E5,1.0169558E5,6.504067E3,1.1619214E3,4.831916E4,6.800756E3,1.6507375E4,3.6397424E3,1.14512266E5,1.329715E4,8.1475005E3,9.28453E2,3.6614684E4,1.3807905E4,2.6033174E4,3.1467126E3,2.4951342E4,5.598236E4,5.618138E3,2.9540813E3,4.0729187E3,2.2398552E2,1.7252133E4,4.1346553E3,3.7453953E4,1.3404546E4,2.0876658E4,3.0236277E3,5.2061694E3,2.1909707E3,4.8026734E4,2.5580877E4],"tree_param":{"num_deleted":"0","num_feature":"565","num_nodes":"127","size_leaf_vector":"0"}},{"base_weights":[-7.70375E-4,7.445864E-1,-5.04251E-1,-5.051778E-2,9.107412E-1,-1.0167867E0,-1.0348133E-1,-3.4406546E-1,3.4611592E-1,6.869761E-1,1.0488491E0,-1.1027542E0,-5.576437E-1,-4.2570364E-1,4.3639573E-1,1.9867344E-1,-6.0623133E-1,1.21541485E-1,6.2548685E-1,8.9674455E-1,4.25911E-1,9.8055625E-1,1.1716975E0,-1.1639338E0,-8.6131036E-1,-6.3867134E-1,2.0611231E-1,-6.480954E-1,-5.312302E-2,6.4204407E-1,8.943539E-3,6.677438E-1,4.5151312E-2,-7.48635E-1,-1.1344012E-1,3.551585E-1,-1.9164187E-1,8.424973E-1,4.7469613E-1,6.9384277E-1,1.0277802E0,9.7096786E-2,6.7484796E-1,7.94749E-1,1.047844E0,1.1246524E0,1.2397348E0,-1.1921769E0,-9.053992E-1,-9.639586E-1,-5.26512E-1,-7.365587E-1,-1.9376898E-1,-5.6121334E-2,6.545937E-1,-4.7068962E-1,-8.8558984E-1,3.0060607E-1,-3.037898E-1,5.052827E-1,9.994016E-1,-1.8918611E-1,5.54224E-1,2.2430512E-1,5.7195406E-3,-3.523761E-2,1.699346E-1,-2.4818487E-1,7.413446E-4,-5.842536E-2,2.6114216E-1,7.5953655E-2,2.6224986E-1,-1.3430583E-1,6.385745E-2,2.3063622E-1,3.28557E-1,8.446405E-2,2.3644383E-1,2.7847862E-1,1.524931E-1,2.929302E-1,3.576071E-1,-1.6469674E-2,2.137519E-1,1.3189213E-1,2.4319418E-1,2.8548533E-1,1.6959396E-1,3.3956954E-1,2.8900298E-1,3.424732E-1,2.9717505E-1,3.7485588E-1,3.511613E-1,-3.612756E-1,-2.3660833E-1,-2.8127956E-1,-2.1185623E-2,-3.020941E-1,-1.0161863E-1,-2.1821287E-1,-6.223776E-2,-2.4801444E-1,-1.04164E-1,-9.4249256E-2,1.0806272E-1,-1.3436498E-1,1.3097347E-1,1.0088577E-1,2.9588982E-1,-8.063251E-2,-2.1468396E-1,-3.0106217E-1,-1.9433843E-1,1.3910124E-1,-3.5949126E-2,-1.2944819E-1,1.1050756E-1,1.1411122E-1,2.6548293E-1,2.7103835E-1,3.4366232E-1,-1.5149018E-1,1.6826887E-2,1.08631514E-1,2.6280668E-1],"categories":[],"categories_nodes":[],"categories_segments":[],"categories_sizes":[],"default_left":[0,0,0,0,0,0,0,0,0,0,0,0,0,0,0,0,0,0,0,0,0,0,0,0,0,0,0,0,0,0,0,0,0,0,0,0,0,0,0,0,0,0,0,0,0,0,0,0,0,0,0,0,0,0,0,0,0,0,0,0,0,0,0,0,0,0,0,0,0,0,0,0,0,0,0,0,0,0,0,0,0,0,0,0,0,0,0,0,0,0,0,0,0,0,0,0,0,0,0,0,0,0,0,0,0,0,0,0,0,0,0,0,0,0,0,0,0,0,0,0,0,0,0,0,0,0,0],"id":2,"left_children":[1,3,5,7,9,11,13,15,17,19,21,23,25,27,29,31,33,35,37,39,41,43,45,47,49,51,53,55,57,59,61,63,65,67,69,71,73,75,77,79,81,83,85,87,89,91,93,95,97,99,101,103,105,107,109,111,113,115,117,119,121,123,125,-1,-1,-1,-1,-1,-1,-1,-1,-1,-1,-1,-1,-1,-1,-1,-1,-1,-1,-1,-1,-1,-1,-1,-1,-1,-1,-1,-1,-1,-1,-1,-1,-1,-1,-1,-1,-1,-1,-1,-1,-1,-1,-1,-1,-1,-1,-1,-1,-1,-1,-1,-1,-1,-1,-1,-1,-1,-1,-1,-1,-1,-1,-1,-1],"loss_changes":[5.51657E5,7.8295375E4,1.8021844E5,1.1927463E4,1.5148625E4,1.51958125E4,8.565268E4,8.376816E3,2.73354E3,1.0245289E4,2.5419375E3,4.7890625E3,3.7577402E3,2.5548543E4,1.6177137E4,1.380873E3,2.7856436E3,1.7674043E3,6.3496436E2,2.7573516E3,6.822919E3,2.435E3,3.4525E2,1.8880625E3,2.2526133E3,2.3905625E3,6.850527E2,8.134867E3,1.0219396E4,6.072035E3,6.4584067E3,2.4517871E2,1.2248335E3,1.8192715E3,7.1225684E2,7.320709E2,1.0690334E3,1.4740234E2,6.9349634E2,1.770043E3,5.303672E2,3.359677E3,1.514916E3,1.8638242E3,1.0147656E3,1.4417188E2,2.8507812E1,1.1354062E3,6.849297E2,1.3493203E3,9.859092E2,1.579123E3,6.604888E2,7.098223E2,2.265904E2,5.4657812E3,2.314996E3,3.277189E3,5.79013E3,4.261375E3,4.81125E2,3.3961914E3,9.846704E2,0E0,0E0,0E0,0E0,0E0,0E0,0E0,0E0,0E0,0E0,0E0,0E0,0E0,0E0,0E0,0E0,0E0,0E0,0E0,0E0,0E0,0E0,0E0,0E0,0E0,0E0,0E0,0E0,0E0,0E0,0E0,0E0,0E0,0E0,0E0,0E0,0E0,0E0,0E0,0E0,0E0,0E0,0E0,0E0,0E0,0E0,0E0,0E0,0E0,0E0,0E0,0E0,0E0,0E0,0E0,0E0,0E0,0E0,0E0,0E0,0E0,0E0,0E0,0E0],"parents":[2147483647,0,0,1,1,2,2,3,3,4,4,5,5,6,6,7,7,8,8,9,9,10,10,11,11,12,12,13,13,14,14,15,15,16,16,17,17,18,18,19,19,20,20,21,21,22,22,23,23,24,24,25,25,26,26,27,27,28,28,29,29,30,30,31,31,32,32,33,33,34,34,35,35,36,36,37,37,38,38,39,39,40,40,41,41,42,42,43,43,44,44,45,45,46,46,47,47,48,48,49,49,50,50,51,51,52,52,53,53,54,54,55,55,56,56,57,57,58,58,59,59,60,60,61,61,62,62],"right_children":[2,4,6,8,10,12,14,16,18,20,22,24,26,28,30,32,34,36,38,40,42,44,46,48,50,52,54,56,58,60,62,64,66,68,70,72,74,76,78,80,82,84,86,88,90,92,94,96,98,100,102,104,106,108,110,112,114,116,118,120,122,124,126,-1,-1,-1,-1,-1,-1,-1,-1,-1,-1,-1,-1,-1,-1,-1,-1,-1,-1,-1,-1,-1,-1,-1,-1,-1,-1,-1,-1,-1,-1,-1,-1,-1,-1,-1,-1,-1,-1,-1,-1,-1,-1,-1,-1,-1,-1,-1,-1,-1,-1,-1,-1,-1,-1,-1,-1,-1,-1,-1,-1,-1,-1,-1,-1],"split_conditions":[9.705E-1,1E0,1E0,1E0,1E0,1E0,1E0,9.635E-1,1E0,9.655E-1,1E0,1E0,1E0,1E0,9.78E-1,9.595E-1,1E0,9.66E-1,9.635E-1,1E0,1E0,1E0,1E0,1E0,1E0,1E0,7.258138E-1,9.785E-1,9.755E-1,1E0,1E0,3.522175E-1,1E0,1E0,1E0,1E0,1E0,1E0,6.5302783E-1,9.62E-1,1E0,1E0,1E0,9.655E-1,9.65E-1,1E0,1E0,1E0,1E0,1E0,6.926407E-3,1.383311E-2,1E0,1.7849175E-2,1E0,6.497726E-4,1E0,6.497726E-4,1E0,1E0,1E0,1E0,1E0,2.2430512E-1,5.7195406E-3,-3.523761E-2,1.699346E-1,-2.4818487E-1,7.413446E-4,-5.842536E-2,2.6114216E-1,7.5953655E-2,2.6224986E-1,-1.3430583E-1,6.385745E-2,2.3063622E-1,3.28557E-1,8.446405E-2,2.3644383E-1,2.7847862E-1,1.524931E-1,2.929302E-1,3.576071E-1,-1.6469674E-2,2.137519E-1,1.3189213E-1,2.4319418E-1,2.8548533E-1,1.6959396E-1,3.3956954E-1,2.8900298E-1,3.424732E-1,2.9717505E-1,3.7485588E-1,3.511613E-1,-3.612756E-1,-2.3660833E-1,-2.8127956E-1,-2.1185623E-2,-3.020941E-1,-1.0161863E-1,-2.1821287E-1,-6.223776E-2,-2.4801444E-1,-1.04164E-1,-9.4249256E-2,1.0806272E-1,-1.3436498E-1,1.3097347E-1,1.0088577E-1,2.9588982E-1,-8.063251E-2,-2.1468396E-1,-3.0106217E-1,-1.9433843E-1,1.3910124E-1,-3.5949126E-2,-1.2944819E-1,1.1050756E-1,1.1411122E-1,2.6548293E-1,2.7103835E-1,3.4366232E-1,-1.5149018E-1,1.6826887E-2,1.08631514E-1,2.6280668E-1],"split_indices":[8,195,195,135,395,427,427,8,395,8,265,135,179,135,8,8,262,8,8,135,135,135,334,106,21,555,3,8,8,511,403,2,256,334,370,334,427,334,4,8,370,334,106,8,8,216,216,334,352,334,0,1,403,1,21,5,555,5,334,370,370,106,339,0,0,0,0,0,0,0,0,0,0,0,0,0,0,0,0,0,0,0,0,0,0,0,0,0,0,0,0,0,0,0,0,0,0,0,0,0,0,0,0,0,0,0,0,0,0,0,0,0,0,0,0,0,0,0,0,0,0,0,0,0,0,0,0],"split_type":[0,0,0,0,0,0,0,0,0,0,0,0,0,0,0,0,0,0,0,0,0,0,0,0,0,0,0,0,0,0,0,0,0,0,0,0,0,0,0,0,0,0,0,0,0,0,0,0,0,0,0,0,0,0,0,0,0,0,0,0,0,0,0,0,0,0,0,0,0,0,0,0,0,0,0,0,0,0,0,0,0,0,0,0,0,0,0,0,0,0,0,0,0,0,0,0,0,0,0,0,0,0,0,0,0,0,0,0,0,0,0,0,0,0,0,0,0,0,0,0,0,0,0,0,0,0,0],"sum_hessian":[1.4700142E6,5.9264994E5,8.773643E5,1.0244041E5,4.9020956E5,3.849976E5,4.923667E5,5.8870566E4,4.356984E4,1.8708944E5,3.0312012E5,3.2427972E5,6.071788E4,3.0833753E5,1.8402916E5,1.9174836E4,3.969573E4,2.41545E4,1.9415338E4,1.0373492E5,8.335452E4,1.948241E5,1.0829603E5,2.5871914E5,6.5560586E4,5.4894258E4,5.823623E3,1.9308511E5,1.1525242E5,1.2425112E5,5.9778035E4,4.7274062E3,1.4447431E4,3.0795986E4,8.899746E3,1.3834565E4,1.0319935E4,7.958E3,1.1457339E4,4.070761E4,6.3027316E4,3.5915746E4,4.7438773E4,5.1799348E4,1.4302473E5,6.4035516E4,4.426051E4,2.3323603E5,2.5483107E4,5.017514E4,1.5385441E4,4.4994023E4,9.900234E3,3.6754236E3,2.1481992E3,1.10526195E5,8.2558914E4,4.779964E4,6.745279E4,8.986285E4,3.4388266E4,4.3846793E4,1.5931239E4,4.2086064E3,5.187999E2,1.1012911E4,3.4345195E3,2.7876908E4,2.9190781E3,8.221148E3,6.785972E2,1.1563871E4,2.2706938E3,6.319593E3,4.0003418E3,6.164013E3,1.7939868E3,7.0902144E3,4.367124E3,1.7982635E4,2.2724975E4,4.802163E4,1.5005687E4,2.8802844E4,7.1129023E3,1.7365527E4,3.0073248E4,3.0763047E4,2.1036303E4,7.169561E4,7.132913E4,5.6851055E4,7.184463E3,3.8762316E4,5.498197E3,2.264568E5,6.779223E3,2.4536555E4,9.4655316E2,4.694432E4,3.2308218E3,9.44066E3,5.9447812E3,3.6533316E4,8.460707E3,8.133111E3,1.7671235E3,2.0474883E3,1.6279354E3,1.0972664E3,1.050933E3,6.0583414E4,4.994278E4,5.518362E4,2.7375295E4,3.4441523E4,1.3358117E4,5.66836E4,1.0769185E4,6.761791E4,2.2244945E4,2.0763932E4,1.3624334E4,1.9167922E4,2.4678873E4,9.976954E3,5.954285E3],"tree_param":{"num_deleted":"0","num_feature":"565","num_nodes":"127","size_leaf_vector":"0"}},{"base_weights":[-1.0808592E-3,5.0097936E-1,-4.828841E-1,-1.691183E-1,6.696501E-1,-8.7968713E-1,-1.7129846E-1,-4.8424155E-1,1.6887218E-1,3.156479E-1,7.94779E-1,-9.90748E-1,-5.7614625E-1,-4.3615422E-1,1.8952899E-1,5.653665E-2,-6.6936415E-1,-5.9179343E-2,3.9623803E-1,6.69905E-1,6.802392E-2,6.963797E-1,9.8504484E-1,-1.078696E0,-8.4769255E-1,-6.9191426E-1,-1.4996527E-1,-5.2345335E-1,1.9323663E-1,2.8999597E-2,6.5943235E-1,-1.3149221E-1,4.9816605E-1,-7.888436E-1,-1.8894403E-1,-1.6482528E-1,5.29944E-1,3.074403E-1,8.0793405E-1,4.5797142E-1,8.734735E-1,-9.932762E-2,5.7980686E-1,8.3770216E-1,5.2896947E-1,9.2743605E-1,1.0792236E0,-1.1035078E0,-7.692214E-1,-9.0909344E-1,-5.385132E-1,-7.5624293E-1,-1.9708576E-2,-2.4786347E-1,5.874608E-1,-3.5933188E-1,-7.5231147E-1,6.601153E-2,5.8418316E-1,-9.317956E-2,5.33197E-1,5.399792E-1,9.634675E-1,-6.1415315E-2,3.155198E-1,9.836372E-2,2.4297573E-1,-2.4937446E-1,9.1896616E-2,-9.437068E-2,1.1980928E-1,-8.709219E-2,8.4312715E-2,1.917368E-1,4.451719E-2,5.322481E-2,1.9937769E-1,2.3371686E-1,4.453946E-1,2.6676443E-1,1.0328165E-1,2.3713657E-1,3.1731892E-1,3.9721277E-2,-1.2519139E-1,2.1837406E-1,8.541238E-2,2.360177E-1,3.0073184E-1,1.282888E-1,2.5641677E-1,2.6373318E-1,3.1359848E-1,3.2857096E-1,2.9604042E-1,-3.099888E-1,-3.4779763E-1,-2.5275144E-1,-2.9989744E-2,-2.8046954E-1,-9.81943E-2,-1.8122162E-1,5.172363E-3,-2.325517E-1,2.8953195E-1,-1.6331859E-1,4.5853134E-2,-1.3060042E-1,2.7896978E-2,-2.9131357E-2,2.6080182E-1,-1.2870684E-1,1.1430003E-1,-2.3336862E-1,1.2614769E-1,7.7053264E-2,-5.0200865E-2,1.0804043E-1,2.5908074E-1,-6.545644E-2,8.07997E-2,1.2504998E-1,2.5407735E-1,2.0280673E-1,8.108353E-2,2.6191315E-1,3.246017E-1],"categories":[],"categories_nodes":[],"categories_segments":[],"categories_sizes":[],"default_left":[0,0,0,0,0,0,0,0,0,0,0,0,0,0,0,0,0,0,0,0,0,0,0,0,0,0,0,0,0,0,0,0,0,0,0,0,0,0,0,0,0,0,0,0,0,0,0,0,0,0,0,0,0,0,0,0,0,0,0,0,0,0,0,0,0,0,0,0,0,0,0,0,0,0,0,0,0,0,0,0,0,0,0,0,0,0,0,0,0,0,0,0,0,0,0,0,0,0,0,0,0,0,0,0,0,0,0,0,0,0,0,0,0,0,0,0,0,0,0,0,0,0,0,0,0,0,0],"id":3,"left_children":[1,3,5,7,9,11,13,15,17,19,21,23,25,27,29,31,33,35,37,39,41,43,45,47,49,51,53,55,57,59,61,63,65,67,69,71,73,75,77,79,81,83,85,87,89,91,93,95,97,99,101,103,105,107,109,111,113,115,117,119,121,123,125,-1,-1,-1,-1,-1,-1,-1,-1,-1,-1,-1,-1,-1,-1,-1,-1,-1,-1,-1,-1,-1,-1,-1,-1,-1,-1,-1,-1,-1,-1,-1,-1,-1,-1,-1,-1,-1,-1,-1,-1,-1,-1,-1,-1,-1,-1,-1,-1,-1,-1,-1,-1,-1,-1,-1,-1,-1,-1,-1,-1,-1,-1,-1,-1],"loss_changes":[3.2359144E5,7.4043125E4,8.440034E4,1.4031174E4,2.3182547E4,1.0121656E4,3.6543258E4,6.825035E3,3.2958281E3,1.1990046E4,7.2387656E3,2.7648281E3,3.9683672E3,1.2116492E4,1.2210024E4,1.4438807E3,2.9151348E3,1.9751904E3,1.1633599E3,2.425668E3,6.890397E3,6.029578E3,7.141328E2,1.0444688E3,1.588418E3,2.7351367E3,1.240645E3,7.273578E3,1.3360142E3,7.432385E3,1.4963711E3,1.0568865E3,2.7538452E2,1.8891094E3,7.478095E2,1.5056349E3,2.0093347E2,1.2158179E3,1.09188965E2,1.3506558E3,4.3789453E2,4.4673306E3,8.662446E2,1.1598125E3,3.8511758E3,4.650547E2,7.294531E1,4.9267188E2,4.9563428E2,1.0480156E3,5.0536548E2,1.8817422E3,5.0033432E2,9.694094E2,3.8873914E2,5.819039E3,2.4270234E3,9.0256445E2,4.1256738E2,4.4011313E3,8.587842E2,1.0856035E3,1.2365527E2,0E0,0E0,0E0,0E0,0E0,0E0,0E0,0E0,0E0,0E0,0E0,0E0,0E0,0E0,0E0,0E0,0E0,0E0,0E0,0E0,0E0,0E0,0E0,0E0,0E0,0E0,0E0,0E0,0E0,0E0,0E0,0E0,0E0,0E0,0E0,0E0,0E0,0E0,0E0,0E0,0E0,0E0,0E0,0E0,0E0,0E0,0E0,0E0,0E0,0E0,0E0,0E0,0E0,0E0,0E0,0E0,0E0,0E0,0E0,0E0,0E0,0E0,0E0,0E0],"parents":[2147483647,0,0,1,1,2,2,3,3,4,4,5,5,6,6,7,7,8,8,9,9,10,10,11,11,12,12,13,13,14,14,15,15,16,16,17,17,18,18,19,19,20,20,21,21,22,22,23,23,24,24,25,25,26,26,27,27,28,28,29,29,30,30,31,31,32,32,33,33,34,34,35,35,36,36,37,37,38,38,39,39,40,40,41,41,42,42,43,43,44,44,45,45,46,46,47,47,48,48,49,49,50,50,51,51,52,52,53,53,54,54,55,55,56,56,57,57,58,58,59,59,60,60,61,61,62,62],"right_children":[2,4,6,8,10,12,14,16,18,20,22,24,26,28,30,32,34,36,38,40,42,44,46,48,50,52,54,56,58,60,62,64,66,68,70,72,74,76,78,80,82,84,86,88,90,92,94,96,98,100,102,104,106,108,110,112,114,116,118,120,122,124,126,-1,-1,-1,-1,-1,-1,-1,-1,-1,-1,-1,-1,-1,-1,-1,-1,-1,-1,-1,-1,-1,-1,-1,-1,-1,-1,-1,-1,-1,-1,-1,-1,-1,-1,-1,-1,-1,-1,-1,-1,-1,-1,-1,-1,-1,-1,-1,-1,-1,-1,-1,-1,-1,-1,-1,-1,-1,-1,-1,-1,-1,-1,-1,-1],"split_conditions":[9.73E-1,1E0,1E0,1E0,1E0,1E0,1E0,9.645E-1,1E0,9.66E-1,1E0,8.101473E-1,1E0,1E0,1E0,1E0,1E0,1E0,1E0,1E0,1E0,9.66E-1,1E0,1E0,1E0,1E0,1E0,6.497726E-4,1E0,1E0,1E0,1E0,1E0,1E0,1E0,1E0,6.497726E-4,6.747508E-1,9.715E-1,9.605E-1,1E0,6.497726E-4,6.497726E-4,1E0,1E0,1E0,1E0,9.78E-1,3.4963876E-1,1E0,1E0,1E0,4.3290043E-3,1E0,4.016064E-3,1E0,1E0,1E0,1E0,1E0,1E0,9.785E-1,1E0,-6.1415315E-2,3.155198E-1,9.836372E-2,2.4297573E-1,-2.4937446E-1,9.1896616E-2,-9.437068E-2,1.1980928E-1,-8.709219E-2,8.4312715E-2,1.917368E-1,4.451719E-2,5.322481E-2,1.9937769E-1,2.3371686E-1,4.453946E-1,2.6676443E-1,1.0328165E-1,2.3713657E-1,3.1731892E-1,3.9721277E-2,-1.2519139E-1,2.1837406E-1,8.541238E-2,2.360177E-1,3.0073184E-1,1.282888E-1,2.5641677E-1,2.6373318E-1,3.1359848E-1,3.2857096E-1,2.9604042E-1,-3.099888E-1,-3.4779763E-1,-2.5275144E-1,-2.9989744E-2,-2.8046954E-1,-9.81943E-2,-1.8122162E-1,5.172363E-3,-2.325517E-1,2.8953195E-1,-1.6331859E-1,4.5853134E-2,-1.3060042E-1,2.7896978E-2,-2.9131357E-2,2.6080182E-1,-1.2870684E-1,1.1430003E-1,-2.3336862E-1,1.2614769E-1,7.7053264E-2,-5.0200865E-2,1.0804043E-1,2.5908074E-1,-6.545644E-2,8.07997E-2,1.2504998E-1,2.5407735E-1,2.0280673E-1,8.108353E-2,2.6191315E-1,3.246017E-1],"split_indices":[8,195,195,528,528,135,528,8,9,8,334,4,81,334,132,395,555,513,265,135,334,8,513,262,21,403,334,5,144,334,334,370,32,513,427,403,5,4,8,8,513,5,5,370,370,370,216,8,6,334,79,513,0,21,1,370,287,168,101,339,403,8,179,0,0,0,0,0,0,0,0,0,0,0,0,0,0,0,0,0,0,0,0,0,0,0,0,0,0,0,0,0,0,0,0,0,0,0,0,0,0,0,0,0,0,0,0,0,0,0,0,0,0,0,0,0,0,0,0,0,0,0,0,0,0,0,0],"split_type":[0,0,0,0,0,0,0,0,0,0,0,0,0,0,0,0,0,0,0,0,0,0,0,0,0,0,0,0,0,0,0,0,0,0,0,0,0,0,0,0,0,0,0,0,0,0,0,0,0,0,0,0,0,0,0,0,0,0,0,0,0,0,0,0,0,0,0,0,0,0,0,0,0,0,0,0,0,0,0,0,0,0,0,0,0,0,0,0,0,0,0,0,0,0,0,0,0,0,0,0,0,0,0,0,0,0,0,0,0,0,0,0,0,0,0,0,0,0,0,0,0,0,0,0,0,0,0],"sum_hessian":[1.3377374E6,6.550971E5,6.826402E5,1.3173562E5,5.233615E5,3.0025934E5,3.8238084E5,6.81738E4,6.3561832E4,1.3668097E5,3.8668053E5,2.1982612E5,8.043322E4,2.2051642E5,1.618644E5,1.7386178E4,5.0787617E4,3.1733436E4,3.1828396E4,5.6232145E4,8.044883E4,2.5487317E5,1.3180738E5,1.3612956E5,8.369656E4,6.325105E4,1.718217E4,1.9365573E5,2.6860691E4,1.2064907E5,4.1215332E4,1.2194801E4,5.191376E3,4.0671953E4,1.0115666E4,2.6908691E4,4.824744E3,2.6182832E4,5.6455645E3,2.7551617E4,2.8680525E4,6.0625324E4,1.98235E4,1.3820277E5,1.1667041E5,8.178852E4,5.0018848E4,1.26023195E5,1.0106361E4,6.982738E4,1.3869183E4,5.772661E4,5.5244434E3,1.5169043E4,2.0131273E3,1.1278009E5,8.087564E4,2.0266549E4,6.5941416E3,9.711627E4,2.3532795E4,2.9591738E4,1.1623595E4,1.148487E4,7.0993E2,3.358781E3,1.8325953E3,3.915608E4,1.5158754E3,8.33608E3,1.7795863E3,2.0999174E4,5.909518E3,3.7508042E3,1.0739401E3,1.9195895E4,6.986937E3,5.416571E3,2.2899353E2,5.7470703E3,2.1804547E4,1.97757E4,8.904827E3,3.506883E4,2.55565E4,1.3198075E4,6.625424E3,1.0554768E5,3.2655088E4,8.898876E4,2.768165E4,5.801565E4,2.3772873E4,4.262315E4,7.3956997E3,5.582348E4,7.019972E4,9.108702E3,9.9765894E2,6.686113E4,2.966246E3,1.2405676E4,1.4635066E3,5.709925E4,6.2735864E2,1.366653E3,4.15779E3,9.786266E3,5.3827773E3,5.873514E2,1.4257759E3,1.0307736E5,9.702735E3,7.914939E4,1.7262527E3,1.1148865E4,9.117685E3,3.66095E3,2.933192E3,7.2214305E4,2.4901975E4,1.7167555E4,6.36524E3,1.9668828E4,9.922909E3,6.598482E3,5.025113E3],"tree_param":{"num_deleted":"0","num_feature":"565","num_nodes":"127","size_leaf_vector":"0"}},{"base_weights":[-1.2922657E-3,3.473326E-1,-4.4164062E-1,-1.9540621E-1,4.9978635E-1,-6.628352E-1,-2.6420783E-2,-3.88994E-1,2.2202769E-1,3.803432E-1,8.619883E-1,-7.679825E-1,-2.8472692E-1,-3.2846484E-1,1.9581197E-1,-7.996692E-2,-6.250895E-1,1.4347683E-1,6.586865E-1,1.4360209E-1,6.012084E-1,8.0555063E-1,9.580949E-1,-8.3804816E-1,-4.2022353E-1,-3.7252027E-1,8.177702E-2,-3.6047354E-1,5.933252E-1,9.7889446E-2,6.806875E-1,-1.8335557E-1,5.2069384E-1,-7.4725413E-1,-7.891579E-2,3.5135496E-1,-4.321655E-2,7.23785E-1,2.1336731E-1,-8.242032E-2,3.7997785E-1,5.133129E-1,8.0370224E-1,7.611549E-1,9.114437E-1,9.222299E-1,1.0148758E0,-9.1906273E-1,-6.6753393E-1,-4.8470244E-1,2.1805999E-1,-2.3121323E-1,-6.1954665E-1,2.252759E-1,-4.7779393E-1,-4.038899E-1,3.403457E-1,1.4552467E0,3.316434E-1,-5.23799E-2,3.73276E-1,1.672833E-1,7.43029E-1,-8.255685E-2,1.1937869E-1,8.509311E-2,1.9382443E-1,-2.4914004E-1,-7.862554E-2,-8.1880674E-2,1.1108949E-1,7.581909E-2,1.8239368E-1,-5.6674864E-2,1.0160812E-1,2.2347276E-1,-1.8014532E-1,1.0098384E-1,-4.6726242E-1,1.4929897E-1,-4.9675122E-2,2.1196815E-1,7.3770754E-2,2.2518943E-1,1.2631525E-1,2.6715297E-1,2.1595255E-1,2.0200205E-1,2.4979043E-1,2.8189147E-1,2.270739E-1,2.8211316E-1,2.4204703E-1,3.093863E-1,2.8008947E-1,-3.0662185E-1,-2.3210302E-1,-2.0879565E-1,3.1345073E-2,-1.7795514E-1,-5.841273E-2,1.0008519E-1,-9.1836065E-2,-8.720388E-2,1.06172554E-1,-1.9215642E-1,2.7089274E-1,1.6899097E-1,1.3924669E-2,-1.6714266E-1,1.5546866E-1,-1.4634588E-1,-3.2932945E-2,1.5486816E-1,-1.0237577E-2,4.6527067E-1,-4.8672053E-1,-6.604895E-2,2.2437842E-1,2.9728081E-2,-9.493499E-2,1.5693384E-1,-3.74058E-2,-4.5033183E-2,1.9756694E-1,2.6751018E-1,1.8361755E-1],"categories":[],"categories_nodes":[],"categories_segments":[],"categories_sizes":[],"default_left":[0,0,0,0,0,0,0,0,0,0,0,0,0,0,0,0,0,0,0,0,0,0,0,0,0,0,0,0,0,0,0,0,0,0,0,0,0,0,0,0,0,0,0,0,0,0,0,0,0,0,0,0,0,0,0,0,0,0,0,0,0,0,0,0,0,0,0,0,0,0,0,0,0,0,0,0,0,0,0,0,0,0,0,0,0,0,0,0,0,0,0,0,0,0,0,0,0,0,0,0,0,0,0,0,0,0,0,0,0,0,0,0,0,0,0,0,0,0,0,0,0,0,0,0,0,0,0],"id":4,"left_children":[1,3,5,7,9,11,13,15,17,19,21,23,25,27,29,31,33,35,37,39,41,43,45,47,49,51,53,55,57,59,61,63,65,67,69,71,73,75,77,79,81,83,85,87,89,91,93,95,97,99,101,103,105,107,109,111,113,115,117,119,121,123,125,-1,-1,-1,-1,-1,-1,-1,-1,-1,-1,-1,-1,-1,-1,-1,-1,-1,-1,-1,-1,-1,-1,-1,-1,-1,-1,-1,-1,-1,-1,-1,-1,-1,-1,-1,-1,-1,-1,-1,-1,-1,-1,-1,-1,-1,-1,-1,-1,-1,-1,-1,-1,-1,-1,-1,-1,-1,-1,-1,-1,-1,-1,-1,-1],"loss_changes":[1.8764338E5,5.6447234E4,4.9605188E4,1.2089729E4,2.3041156E4,1.4009422E4,1.2600625E4,7.456959E3,1.6257095E3,2.094225E4,7.156172E2,6.717578E3,2.4671104E3,2.3480137E3,5.1348877E3,2.7491748E3,3.8659062E3,1.5591534E3,2.0933765E2,1.0328045E4,3.6875234E3,3.9053125E2,9.856641E1,3.1693594E3,1.9029917E3,2.159041E3,1.1899572E3,2.3400488E3,6.019036E2,3.7235474E3,5.814707E2,2.0162074E3,1.9304346E2,1.9113809E3,9.232589E2,4.8094653E2,1.1778547E3,1.768064E2,2.0199187E2,4.767418E3,4.1373506E3,3.163414E3,4.5591797E2,3.6753125E2,1.0637305E2,6.198047E1,2.424414E1,2.3289219E3,1.6236172E3,1.3209756E3,2.571057E2,1.36927E3,7.1934766E2,7.1305005E2,2.3933997E2,1.7875371E3,2.9552856E2,1.8554407E2,4.710772E2,2.3285942E3,2.3701802E3,3.0709805E2,3.1495898E2,0E0,0E0,0E0,0E0,0E0,0E0,0E0,0E0,0E0,0E0,0E0,0E0,0E0,0E0,0E0,0E0,0E0,0E0,0E0,0E0,0E0,0E0,0E0,0E0,0E0,0E0,0E0,0E0,0E0,0E0,0E0,0E0,0E0,0E0,0E0,0E0,0E0,0E0,0E0,0E0,0E0,0E0,0E0,0E0,0E0,0E0,0E0,0E0,0E0,0E0,0E0,0E0,0E0,0E0,0E0,0E0,0E0,0E0,0E0,0E0,0E0,0E0,0E0,0E0],"parents":[2147483647,0,0,1,1,2,2,3,3,4,4,5,5,6,6,7,7,8,8,9,9,10,10,11,11,12,12,13,13,14,14,15,15,16,16,17,17,18,18,19,19,20,20,21,21,22,22,23,23,24,24,25,25,26,26,27,27,28,28,29,29,30,30,31,31,32,32,33,33,34,34,35,35,36,36,37,37,38,38,39,39,40,40,41,41,42,42,43,43,44,44,45,45,46,46,47,47,48,48,49,49,50,50,51,51,52,52,53,53,54,54,55,55,56,56,57,57,58,58,59,59,60,60,61,61,62,62],"right_children":[2,4,6,8,10,12,14,16,18,20,22,24,26,28,30,32,34,36,38,40,42,44,46,48,50,52,54,56,58,60,62,64,66,68,70,72,74,76,78,80,82,84,86,88,90,92,94,96,98,100,102,104,106,108,110,112,114,116,118,120,122,124,126,-1,-1,-1,-1,-1,-1,-1,-1,-1,-1,-1,-1,-1,-1,-1,-1,-1,-1,-1,-1,-1,-1,-1,-1,-1,-1,-1,-1,-1,-1,-1,-1,-1,-1,-1,-1,-1,-1,-1,-1,-1,-1,-1,-1,-1,-1,-1,-1,-1,-1,-1,-1,-1,-1,-1,-1,-1,-1,-1,-1,-1,-1,-1,-1],"split_conditions":[9.745E-1,1E0,1E0,1E0,1E0,1E0,1E0,9.68E-1,1E0,1E0,1E0,1E0,1E0,1E0,1E0,1E0,6.6344297E-1,9.930693E-1,1E0,1E0,1E0,1E0,1E0,1E0,1E0,6.497726E-4,1E0,1E0,4.750781E-1,1E0,1E0,1E0,1E0,1E0,1E0,1E0,6.9870555E-1,1E0,1E0,9.625E-1,9.65E-1,9.64E-1,9.665E-1,1E0,1E0,1E0,1E0,8.2160395E-1,1E0,1E0,9.845E-1,1E0,1E0,1E0,1E0,1E0,9.795E-1,1E0,1E0,9.805E-1,1E0,7.919758E-1,1E0,-8.255685E-2,1.1937869E-1,8.509311E-2,1.9382443E-1,-2.4914004E-1,-7.862554E-2,-8.1880674E-2,1.1108949E-1,7.581909E-2,1.8239368E-1,-5.6674864E-2,1.0160812E-1,2.2347276E-1,-1.8014532E-1,1.0098384E-1,-4.6726242E-1,1.4929897E-1,-4.9675122E-2,2.1196815E-1,7.3770754E-2,2.2518943E-1,1.2631525E-1,2.6715297E-1,2.1595255E-1,2.0200205E-1,2.4979043E-1,2.8189147E-1,2.270739E-1,2.8211316E-1,2.4204703E-1,3.093863E-1,2.8008947E-1,-3.0662185E-1,-2.3210302E-1,-2.0879565E-1,3.1345073E-2,-1.7795514E-1,-5.841273E-2,1.0008519E-1,-9.1836065E-2,-8.720388E-2,1.06172554E-1,-1.9215642E-1,2.7089274E-1,1.6899097E-1,1.3924669E-2,-1.6714266E-1,1.5546866E-1,-1.4634588E-1,-3.2932945E-2,1.5486816E-1,-1.0237577E-2,4.6527067E-1,-4.8672053E-1,-6.604895E-2,2.2437842E-1,2.9728081E-2,-9.493499E-2,1.5693384E-1,-3.74058E-2,-4.5033183E-2,1.9756694E-1,2.6751018E-1,1.8361755E-1],"split_indices":[8,195,106,262,513,555,135,8,334,262,334,427,339,287,179,513,4,7,80,135,334,370,370,195,179,5,353,352,4,339,195,334,9,106,21,555,4,353,298,8,8,8,8,9,216,216,216,4,403,81,8,370,122,9,202,81,8,484,355,8,353,3,216,0,0,0,0,0,0,0,0,0,0,0,0,0,0,0,0,0,0,0,0,0,0,0,0,0,0,0,0,0,0,0,0,0,0,0,0,0,0,0,0,0,0,0,0,0,0,0,0,0,0,0,0,0,0,0,0,0,0,0,0,0,0,0,0],"split_type":[0,0,0,0,0,0,0,0,0,0,0,0,0,0,0,0,0,0,0,0,0,0,0,0,0,0,0,0,0,0,0,0,0,0,0,0,0,0,0,0,0,0,0,0,0,0,0,0,0,0,0,0,0,0,0,0,0,0,0,0,0,0,0,0,0,0,0,0,0,0,0,0,0,0,0,0,0,0,0,0,0,0,0,0,0,0,0,0,0,0,0,0,0,0,0,0,0,0,0,0,0,0,0,0,0,0,0,0,0,0,0,0,0,0,0,0,0,0,0,0,0,0,0,0,0,0,0],"sum_hessian":[1.2223E6,6.822005E5,5.4009956E5,1.4960456E5,5.325959E5,3.5238016E5,1.8771944E5,1.02205945E5,4.739863E4,4.00519E5,1.320769E5,2.757081E5,7.667206E4,7.957113E4,1.081483E5,4.4266516E4,5.7939426E4,4.0173176E4,7.225453E3,1.933126E5,2.072064E5,8.321756E4,4.8859348E4,2.2947295E5,4.623513E4,6.1855105E4,1.4816957E4,7.690138E4,2.669754E3,8.997807E4,1.8170225E4,3.7766633E4,6.4998823E3,4.7348457E4,1.0590967E4,1.900771E4,2.1165463E4,6.3033755E3,9.220773E2,9.882082E4,9.449177E4,1.4449133E5,6.2715074E4,5.864064E4,2.457692E4,2.9955533E4,1.8903814E4,1.5555934E5,7.391361E4,4.1993242E4,4.241884E3,3.9348457E4,2.250665E4,1.1793242E4,3.0237146E3,7.241559E4,4.4857847E3,6.207105E2,2.0490435E3,5.8213625E4,3.1764443E4,1.9678635E3,1.6202361E4,3.2614566E4,5.1520674E3,2.2498032E3,4.250079E3,4.041591E4,6.9325493E3,7.396669E3,3.1942983E3,1.3732195E4,5.275515E3,1.53209795E4,5.8444844E3,6.2048364E3,9.853933E1,8.628384E2,5.923887E1,1.2390351E4,8.643047E4,2.7500758E4,6.6991016E4,4.0446586E4,1.0404474E5,3.0811316E4,3.1903758E4,2.6318336E4,3.2322307E4,2.078041E4,3.7965093E3,2.5879E4,4.0765327E3,1.57171455E4,3.18667E3,9.104524E4,6.451411E4,7.128655E4,2.6270603E3,3.0560182E4,1.14330625E4,3.4759602E3,7.659237E2,3.571883E4,3.6296287E3,2.2201377E4,3.052729E2,4.080111E3,7.7131313E3,2.8010125E3,2.2270233E2,5.633803E4,1.6077567E4,3.0519612E3,1.4338232E3,6.02481E2,1.822946E1,8.813027E2,1.1677407E3,3.6994055E4,2.1219572E4,2.4417244E4,7.3471997E3,1.1959182E3,7.7194525E2,7.5856665E3,8.616695E3],"tree_param":{"num_deleted":"0","num_feature":"565","num_nodes":"127","size_leaf_vector":"0"}},{"base_weights":[-1.4132583E-3,4.230235E-1,-2.359527E-1,1.968662E-1,6.131219E-1,-4.697051E-1,1.077176E-1,6.8571214E-3,4.503909E-1,4.5173833E-1,7.121724E-1,-6.234874E-1,-1.800923E-1,-1.0609922E-2,5.4389626E-1,-7.581391E-2,6.842981E-1,3.8626087E-1,7.34427E-1,3.813928E-1,7.5645465E-1,6.369221E-1,8.242562E-1,-7.925214E-1,-4.1494808E-1,-2.4122411E-1,4.564854E-1,-6.0404927E-2,6.3189775E-1,6.155624E-1,3.364381E-1,-1.5918455E-1,5.250996E-1,7.189914E-1,2.5417852E-1,5.344664E-1,1.652248E-1,7.5308466E-1,2.0886736E-1,5.888434E-1,2.7091324E-1,7.8091794E-1,3.9712927E-1,5.7543623E-1,7.5991774E-1,8.504763E-1,6.7589355E-1,-8.882111E-1,-6.450874E-1,-4.5741192E-1,1.6623273E-1,-3.1717297E-1,2.228713E-1,5.538965E-1,1.4618745E-1,-1.5045063E-1,3.2563442E-1,4.8912066E-1,1.3323209E0,7.01484E-1,4.4756025E-1,2.4244094E-1,6.6381496E-1,-8.183578E-2,6.820564E-2,1.9719489E-1,1.0348621E-1,2.5078055E-1,1.8675709E-1,1.4089157E-1,-6.569573E-2,2.0551212E-1,1.2938482E-1,-4.9170554E-2,1.09386854E-1,2.082271E-1,2.602476E-1,7.530287E-2,-1.1153872E0,1.0884293E-1,2.0143579E-1,5.2494768E-2,1.5908033E-1,3.00465E-1,2.2516361E-1,1.2470456E-1,-1.1222733E0,1.5704921E-1,2.2549461E-1,2.34308E-1,1.7209604E-1,2.4203663E-1,2.8067583E-1,1.1419217E-1,2.1670853E-1,-2.7162382E-1,-1.0791932E-1,-2.1561195E-1,-1.0802604E-1,-1.4473082E-1,1.23163536E-1,1.13345064E-1,-1.0192155E-1,-1.1453404E-1,5.1299833E-2,-1.01964496E-1,9.5446214E-2,1.7361385E-1,-2.870812E-1,-4.9782405E-3,1.7779794E-1,-6.8051025E-2,7.006209E-2,7.0024006E-2,2.0486754E-1,2.4983424E-1,9.898754E-2,4.0308392E-1,-6.327594E-1,1.8028983E-1,2.5127378E-1,7.91888E-2,1.7951734E-1,1.2523136E-1,1.2237474E-2,2.0409705E-1,-3.1258264E-1],"categories":[],"categories_nodes":[],"categories_segments":[],"categories_sizes":[],"default_left":[0,0,0,0,0,0,0,0,0,0,0,0,0,0,0,0,0,0,0,0,0,0,0,0,0,0,0,0,0,0,0,0,0,0,0,0,0,0,0,0,0,0,0,0,0,0,0,0,0,0,0,0,0,0,0,0,0,0,0,0,0,0,0,0,0,0,0,0,0,0,0,0,0,0,0,0,0,0,0,0,0,0,0,0,0,0,0,0,0,0,0,0,0,0,0,0,0,0,0,0,0,0,0,0,0,0,0,0,0,0,0,0,0,0,0,0,0,0,0,0,0,0,0,0,0,0,0],"id":5,"left_children":[1,3,5,7,9,11,13,15,17,19,21,23,25,27,29,31,33,35,37,39,41,43,45,47,49,51,53,55,57,59,61,63,65,67,69,71,73,75,77,79,81,83,85,87,89,91,93,95,97,99,101,103,105,107,109,111,113,115,117,119,121,123,125,-1,-1,-1,-1,-1,-1,-1,-1,-1,-1,-1,-1,-1,-1,-1,-1,-1,-1,-1,-1,-1,-1,-1,-1,-1,-1,-1,-1,-1,-1,-1,-1,-1,-1,-1,-1,-1,-1,-1,-1,-1,-1,-1,-1,-1,-1,-1,-1,-1,-1,-1,-1,-1,-1,-1,-1,-1,-1,-1,-1,-1,-1,-1,-1],"loss_changes":[1.12028125E5,1.721989E4,5.8229094E4,8.811721E3,3.4783203E3,1.921371E4,1.5144512E4,5.8558877E3,1.427127E3,1.7738965E3,1.1368438E3,9.932609E3,5.822858E3,7.38467E3,9.3074805E2,4.6686885E3,1.6951562E2,2.0942295E3,1.4136865E2,1.5410791E3,1.3614062E2,6.0975586E2,2.101289E2,2.1950703E3,3.113418E3,4.8119736E3,3.9619775E2,7.4464004E3,1.6596069E3,6.7146094E2,4.9463147E2,3.5935479E3,2.7020508E2,1.1819092E2,8.679512E1,5.9430176E2,1.6841963E3,9.346924E1,8.304638E1,4.360791E2,1.0916631E3,9.663281E1,7.767276E1,4.9198633E2,1.05274414E2,1.703789E2,1.11400635E2,8.576172E2,1.2850293E3,2.5536523E3,9.197812E2,3.7002344E3,1.0296061E3,3.7464697E2,2.277605E2,5.094923E3,1.3347202E3,7.541321E2,1.1205859E2,4.206875E2,4.3599463E2,4.4086505E2,1.01695435E2,0E0,0E0,0E0,0E0,0E0,0E0,0E0,0E0,0E0,0E0,0E0,0E0,0E0,0E0,0E0,0E0,0E0,0E0,0E0,0E0,0E0,0E0,0E0,0E0,0E0,0E0,0E0,0E0,0E0,0E0,0E0,0E0,0E0,0E0,0E0,0E0,0E0,0E0,0E0,0E0,0E0,0E0,0E0,0E0,0E0,0E0,0E0,0E0,0E0,0E0,0E0,0E0,0E0,0E0,0E0,0E0,0E0,0E0,0E0,0E0,0E0,0E0,0E0,0E0],"parents":[2147483647,0,0,1,1,2,2,3,3,4,4,5,5,6,6,7,7,8,8,9,9,10,10,11,11,12,12,13,13,14,14,15,15,16,16,17,17,18,18,19,19,20,20,21,21,22,22,23,23,24,24,25,25,26,26,27,27,28,28,29,29,30,30,31,31,32,32,33,33,34,34,35,35,36,36,37,37,38,38,39,39,40,40,41,41,42,42,43,43,44,44,45,45,46,46,47,47,48,48,49,49,50,50,51,51,52,52,53,53,54,54,55,55,56,56,57,57,58,58,59,59,60,60,61,61,62,62],"right_children":[2,4,6,8,10,12,14,16,18,20,22,24,26,28,30,32,34,36,38,40,42,44,46,48,50,52,54,56,58,60,62,64,66,68,70,72,74,76,78,80,82,84,86,88,90,92,94,96,98,100,102,104,106,108,110,112,114,116,118,120,122,124,126,-1,-1,-1,-1,-1,-1,-1,-1,-1,-1,-1,-1,-1,-1,-1,-1,-1,-1,-1,-1,-1,-1,-1,-1,-1,-1,-1,-1,-1,-1,-1,-1,-1,-1,-1,-1,-1,-1,-1,-1,-1,-1,-1,-1,-1,-1,-1,-1,-1,-1,-1,-1,-1,-1,-1,-1,-1,-1,-1,-1,-1,-1,-1,-1],"split_conditions":[9.695E-1,1E0,1E0,1E0,1E0,1E0,1E0,1E0,1E0,1E0,1E0,1E0,1E0,1E0,9.78E-1,1E0,1E0,9.9455446E-1,1E0,9.625E-1,1E0,1E0,1E0,1E0,1E0,1E0,1E0,1E0,1E0,1E0,1E0,1E0,4.4636214E-1,4.8534444E-1,9.675E-1,9.635E-1,1E0,1E0,1E0,1E0,1E0,1.6128552E-1,1E0,1E0,1E0,1E0,1E0,1E0,1E0,1E0,1E0,1E0,1.7849174E-3,9.915E-1,1E0,1E0,1E0,5.2149975E-1,1E0,1E0,1E0,1E0,1E0,-8.183578E-2,6.820564E-2,1.9719489E-1,1.0348621E-1,2.5078055E-1,1.8675709E-1,1.4089157E-1,-6.569573E-2,2.0551212E-1,1.2938482E-1,-4.9170554E-2,1.09386854E-1,2.082271E-1,2.602476E-1,7.530287E-2,-1.1153872E0,1.0884293E-1,2.0143579E-1,5.2494768E-2,1.5908033E-1,3.00465E-1,2.2516361E-1,1.2470456E-1,-1.1222733E0,1.5704921E-1,2.2549461E-1,2.34308E-1,1.7209604E-1,2.4203663E-1,2.8067583E-1,1.1419217E-1,2.1670853E-1,-2.7162382E-1,-1.0791932E-1,-2.1561195E-1,-1.0802604E-1,-1.4473082E-1,1.23163536E-1,1.13345064E-1,-1.0192155E-1,-1.1453404E-1,5.1299833E-2,-1.01964496E-1,9.5446214E-2,1.7361385E-1,-2.870812E-1,-4.9782405E-3,1.7779794E-1,-6.8051025E-2,7.006209E-2,7.0024006E-2,2.0486754E-1,2.4983424E-1,9.898754E-2,4.0308392E-1,-6.327594E-1,1.8028983E-1,2.5127378E-1,7.91888E-2,1.7951734E-1,1.2523136E-1,1.2237474E-2,2.0409705E-1,-3.1258264E-1],"split_indices":[8,395,106,106,106,135,403,370,370,370,334,195,511,287,8,265,216,7,374,8,292,265,216,530,370,334,240,334,133,292,474,427,4,4,8,8,135,334,107,195,513,4,17,370,292,370,135,334,387,521,80,403,1,8,370,478,370,4,200,387,387,80,419,0,0,0,0,0,0,0,0,0,0,0,0,0,0,0,0,0,0,0,0,0,0,0,0,0,0,0,0,0,0,0,0,0,0,0,0,0,0,0,0,0,0,0,0,0,0,0,0,0,0,0,0,0,0,0,0,0,0,0,0,0,0,0,0],"split_type":[0,0,0,0,0,0,0,0,0,0,0,0,0,0,0,0,0,0,0,0,0,0,0,0,0,0,0,0,0,0,0,0,0,0,0,0,0,0,0,0,0,0,0,0,0,0,0,0,0,0,0,0,0,0,0,0,0,0,0,0,0,0,0,0,0,0,0,0,0,0,0,0,0,0,0,0,0,0,0,0,0,0,0,0,0,0,0,0,0,0,0,0,0,0,0,0,0,0,0,0,0,0,0,0,0,0,0,0,0,0,0,0,0,0,0,0,0,0,0,0,0,0,0,0,0,0,0],"sum_hessian":[1.1253755E6,4.0053762E5,7.248379E5,1.8292112E5,2.176165E5,4.314086E5,2.9342928E5,1.04558625E5,7.836249E4,8.276787E4,1.3484864E5,2.817828E5,1.496258E5,2.308144E5,6.261487E4,9.3187445E4,1.1371177E4,6.393053E4,1.4431964E4,6.724599E4,1.5521875E4,8.068526E4,5.416338E4,1.5563127E5,1.2615153E5,1.3651648E5,1.3109322E4,2.1421353E5,1.6600863E4,4.653683E4,1.6078044E4,8.1834484E4,1.1352966E4,1.0521819E4,8.493578E2,3.8269355E4,2.5661174E4,1.3936767E4,4.951968E2,2.3366227E4,4.3879766E4,1.4531389E4,9.90486E2,5.379743E4,2.688783E4,4.6024695E4,8.138685E3,9.4374195E4,6.125708E4,1.1756209E5,8.589433E3,1.1731782E5,1.919866E4,9.9766045E3,3.1327173E3,1.7369814E5,4.0515395E4,1.3791289E4,2.8095737E3,3.0787797E4,1.5749031E4,1.2492819E4,3.585224E3,6.3246824E4,1.8587658E4,6.545956E3,4.80701E3,4.7526816E3,5.769137E3,5.836118E2,2.6574597E2,1.5558907E4,2.271045E4,9.681332E3,1.5979841E4,9.199888E3,4.736879E3,4.90865E2,4.3318233E0,6.2554805E3,1.7110746E4,3.2032992E4,1.1846772E4,1.7544878E3,1.27769E4,9.869606E2,3.5254164E0,4.1553453E4,1.2243976E4,2.4147998E4,2.739832E3,3.0420203E4,1.5604491E4,1.1079708E3,7.0307144E3,9.139852E4,2.9756702E3,4.8680746E4,1.257633E4,1.1426807E5,3.2940288E3,6.056862E3,2.53257E3,1.0360627E5,1.3711546E4,2.7795698E3,1.641909E4,9.815988E3,1.6061609E2,2.2964177E3,8.362996E2,1.4487836E5,2.881979E4,3.2204023E4,8.311371E3,4.3641226E3,9.427166E3,2.800993E3,8.580863E0,1.7711646E4,1.3076151E4,7.104225E3,8.644807E3,6.6878486E3,5.8049707E3,3.5514539E3,3.37703E1],"tree_param":{"num_deleted":"0","num_feature":"565","num_nodes":"127","size_leaf_vector":"0"}},{"base_weights":[-1.048657E-3,-2.6060605E-1,2.4899276E-1,-4.4524887E-1,3.626359E-2,3.5833475E-1,-4.9800336E-2,-5.2028584E-1,4.015432E-2,-2.2461904E-2,4.9326995E-1,1.8480533E-1,4.9066356E-1,-1.24964416E-1,3.9926502E-1,-5.704255E-1,3.4536563E-2,4.3053424E-1,-7.8520045E-2,-6.1437994E-2,5.3394896E-1,6.1359745E-1,9.436761E-2,1.2183716E-1,5.650001E-1,4.1095287E-1,6.542451E-1,-1.8078728E-1,3.3398107E-1,1.3027008E-1,4.7162873E-1,-6.937717E-1,-3.8986102E-1,-2.3386326E-1,1.9818202E-1,2.4008231E-1,5.493065E-1,-1.2007162E-1,6.1241084E-1,-1.3076979E-1,2.3762298E-1,6.3062817E-1,2.8532517E-1,7.013392E-1,2.7961907E-1,-5.286461E-1,1.7789522E-1,4.9204126E-2,4.429746E-1,6.045507E-1,2.4976267E-1,3.4024358E-1,5.9384304E-1,5.905709E-1,7.9294103E-1,-2.8694132E-1,4.8667785E-2,5.5272292E-2,5.137482E-1,-6.000551E-1,2.672343E-1,5.850109E-1,3.2982567E-1,-2.127735E-1,8.3182395E-2,-1.2533513E-1,1.8828444E-1,-1.4807004E-2,-2.047828E-1,1.0828276E-1,-3.637617E-2,7.802964E-2,-5.895478E-1,2.0007472E-1,1.1318093E-1,-5.0807E-2,1.2660207E-1,-4.185805E-2,2.3771484E-1,-4.8109602E-2,1.4494926E-1,1.4675204E-1,2.953052E-2,1.6402915E-1,2.6583886E-1,8.064178E-2,9.051706E-1,2.1907185E-1,-2.8149957E-2,1.3992675E-1,-7.115668E-2,-1.9392262E-1,4.6411064E-1,1.41074E-1,-2.691057E-3,7.6268375E-2,-1.943171E-2,1.10847495E-1,1.7980634E-1,1.6783744E-1,2.2968306E-1,2.163478E-2,1.7861836E-1,1.21210486E-1,4.199435E-2,9.5712654E-2,1.87777E-1,2.159161E-1,1.588592E-1,2.2596638E-1,2.5578505E-1,-9.233151E-2,2.2706585E-1,6.022598E-3,3.347278E-1,3.4284193E-2,-2.4398749E-1,1.5721133E-1,-7.2343314E-1,-8.507312E-2,-4.102696E-1,1.5305738E-1,-7.5522894E-3,1.8203568E-1,-4.9668062E-2,6.984958E-2,1.8210684E-1],"categories":[],"categories_nodes":[],"categories_segments":[],"categories_sizes":[],"default_left":[0,0,0,0,0,0,0,0,0,0,0,0,0,0,0,0,0,0,0,0,0,0,0,0,0,0,0,0,0,0,0,0,0,0,0,0,0,0,0,0,0,0,0,0,0,0,0,0,0,0,0,0,0,0,0,0,0,0,0,0,0,0,0,0,0,0,0,0,0,0,0,0,0,0,0,0,0,0,0,0,0,0,0,0,0,0,0,0,0,0,0,0,0,0,0,0,0,0,0,0,0,0,0,0,0,0,0,0,0,0,0,0,0,0,0,0,0,0,0,0,0,0,0,0,0,0,0],"id":6,"left_children":[1,3,5,7,9,11,13,15,17,19,21,23,25,27,29,31,33,35,37,39,41,43,45,47,49,51,53,55,57,59,61,63,65,67,69,71,73,75,77,79,81,83,85,87,89,91,93,95,97,99,101,103,105,107,109,111,113,115,117,119,121,123,125,-1,-1,-1,-1,-1,-1,-1,-1,-1,-1,-1,-1,-1,-1,-1,-1,-1,-1,-1,-1,-1,-1,-1,-1,-1,-1,-1,-1,-1,-1,-1,-1,-1,-1,-1,-1,-1,-1,-1,-1,-1,-1,-1,-1,-1,-1,-1,-1,-1,-1,-1,-1,-1,-1,-1,-1,-1,-1,-1,-1,-1,-1,-1,-1],"loss_changes":[6.8096625E4,2.822034E4,1.745995E4,1.1561137E4,5.2983477E3,8.984117E3,4.8327607E3,7.6477266E3,1.9689261E3,3.793927E3,1.0789536E3,4.0523809E3,2.8941016E3,3.142268E3,3.9954248E2,5.615125E3,1.0008601E3,2.2398657E2,9.357685E2,3.3898943E3,2.7509644E2,5.0588525E2,2.712541E2,3.3873433E3,2.9971875E2,1.929918E3,6.4178516E2,2.663483E3,6.663707E2,4.3560803E2,2.5989355E2,2.2509297E3,2.90758E3,7.145901E2,7.3602954E2,1.6857138E2,1.2319983E2,8.2144116E2,2.503338E2,2.4115845E3,1.0772677E3,1.7618604E2,1.4397647E2,3.1436035E2,3.4716168E2,1.5163857E2,2.5105579E2,2.7676482E3,3.075962E2,1.54771E2,1.6468742E2,1.3750303E3,3.666504E2,3.9257422E2,5.3588867E1,1.6257979E3,1.055288E3,2.6744022E2,2.4462451E2,1.6667433E2,2.60488E2,1.4699292E2,1.9316583E2,0E0,0E0,0E0,0E0,0E0,0E0,0E0,0E0,0E0,0E0,0E0,0E0,0E0,0E0,0E0,0E0,0E0,0E0,0E0,0E0,0E0,0E0,0E0,0E0,0E0,0E0,0E0,0E0,0E0,0E0,0E0,0E0,0E0,0E0,0E0,0E0,0E0,0E0,0E0,0E0,0E0,0E0,0E0,0E0,0E0,0E0,0E0,0E0,0E0,0E0,0E0,0E0,0E0,0E0,0E0,0E0,0E0,0E0,0E0,0E0,0E0,0E0,0E0,0E0],"parents":[2147483647,0,0,1,1,2,2,3,3,4,4,5,5,6,6,7,7,8,8,9,9,10,10,11,11,12,12,13,13,14,14,15,15,16,16,17,17,18,18,19,19,20,20,21,21,22,22,23,23,24,24,25,25,26,26,27,27,28,28,29,29,30,30,31,31,32,32,33,33,34,34,35,35,36,36,37,37,38,38,39,39,40,40,41,41,42,42,43,43,44,44,45,45,46,46,47,47,48,48,49,49,50,50,51,51,52,52,53,53,54,54,55,55,56,56,57,57,58,58,59,59,60,60,61,61,62,62],"right_children":[2,4,6,8,10,12,14,16,18,20,22,24,26,28,30,32,34,36,38,40,42,44,46,48,50,52,54,56,58,60,62,64,66,68,70,72,74,76,78,80,82,84,86,88,90,92,94,96,98,100,102,104,106,108,110,112,114,116,118,120,122,124,126,-1,-1,-1,-1,-1,-1,-1,-1,-1,-1,-1,-1,-1,-1,-1,-1,-1,-1,-1,-1,-1,-1,-1,-1,-1,-1,-1,-1,-1,-1,-1,-1,-1,-1,-1,-1,-1,-1,-1,-1,-1,-1,-1,-1,-1,-1,-1,-1,-1,-1,-1,-1,-1,-1,-1,-1,-1,-1,-1,-1,-1,-1,-1,-1],"split_conditions":[1E0,1E0,9.755E-1,1E0,1E0,1E0,1E0,1E0,9.67E-1,1E0,9.765E-1,1E0,1E0,1E0,1E0,1E0,3.4632036E-3,1E0,1E0,1E0,1E0,1E0,4.8638594E-1,1E0,1E0,1E0,1E0,1E0,1E0,1E0,1E0,1E0,1E0,1E0,6.497726E-4,1E0,1E0,1E0,1E0,1E0,9.69E-1,1E0,1E0,1E0,1E0,1E0,1E0,1E0,1E0,1E0,1E0,1E0,1E0,9.645E-1,1E0,1E0,1E0,1E0,1E0,1E0,1E0,8.8973266E-1,1E0,-2.127735E-1,8.3182395E-2,-1.2533513E-1,1.8828444E-1,-1.4807004E-2,-2.047828E-1,1.0828276E-1,-3.637617E-2,7.802964E-2,-5.895478E-1,2.0007472E-1,1.1318093E-1,-5.0807E-2,1.2660207E-1,-4.185805E-2,2.3771484E-1,-4.8109602E-2,1.4494926E-1,1.4675204E-1,2.953052E-2,1.6402915E-1,2.6583886E-1,8.064178E-2,9.051706E-1,2.1907185E-1,-2.8149957E-2,1.3992675E-1,-7.115668E-2,-1.9392262E-1,4.6411064E-1,1.41074E-1,-2.691057E-3,7.6268375E-2,-1.943171E-2,1.10847495E-1,1.7980634E-1,1.6783744E-1,2.2968306E-1,2.163478E-2,1.7861836E-1,1.21210486E-1,4.199435E-2,9.5712654E-2,1.87777E-1,2.159161E-1,1.588592E-1,2.2596638E-1,2.5578505E-1,-9.233151E-2,2.2706585E-1,6.022598E-3,3.347278E-1,3.4284193E-2,-2.4398749E-1,1.5721133E-1,-7.2343314E-1,-8.507312E-2,-4.102696E-1,1.5305738E-1,-7.5522894E-3,1.8203568E-1,-4.9668062E-2,6.984958E-2,1.8210684E-1],"split_indices":[528,555,8,262,370,395,511,334,8,521,8,265,334,521,21,195,0,195,265,334,80,240,4,334,216,265,265,81,555,530,292,513,552,168,5,329,267,521,195,265,8,387,198,374,80,83,9,267,352,334,370,216,195,8,370,71,58,368,533,256,216,2,265,0,0,0,0,0,0,0,0,0,0,0,0,0,0,0,0,0,0,0,0,0,0,0,0,0,0,0,0,0,0,0,0,0,0,0,0,0,0,0,0,0,0,0,0,0,0,0,0,0,0,0,0,0,0,0,0,0,0,0,0,0,0,0,0],"split_type":[0,0,0,0,0,0,0,0,0,0,0,0,0,0,0,0,0,0,0,0,0,0,0,0,0,0,0,0,0,0,0,0,0,0,0,0,0,0,0,0,0,0,0,0,0,0,0,0,0,0,0,0,0,0,0,0,0,0,0,0,0,0,0,0,0,0,0,0,0,0,0,0,0,0,0,0,0,0,0,0,0,0,0,0,0,0,0,0,0,0,0,0,0,0,0,0,0,0,0,0,0,0,0,0,0,0,0,0,0,0,0,0,0,0,0,0,0,0,0,0,0,0,0,0,0,0,0],"sum_hessian":[1.049251E6,5.1482888E5,5.3442206E5,3.174101E5,1.9741877E5,3.9124688E5,1.4317522E5,2.7491222E5,4.2497887E4,1.7493988E5,2.247889E4,1.6927305E5,2.2197381E5,1.2264735E5,2.0527861E4,2.5212727E5,2.2784947E4,9.906798E3,3.259109E4,1.6348853E5,1.1451338E4,1.7269166E4,5.209723E3,1.452225E5,2.405055E4,1.4925012E5,7.2723695E4,1.0934769E5,1.3299666E4,4.3522407E3,1.6175621E4,1.4979636E5,1.023309E5,8.630074E3,1.4154873E4,3.8063367E3,6.100461E3,3.0743072E4,1.8480172E3,1.3272033E5,3.076821E4,8.244045E3,3.2072937E3,1.3675328E4,3.5938384E3,6.152657E2,4.5944575E3,1.1843638E5,2.6786113E4,2.1368662E4,2.6818892E3,1.0763785E5,4.1612273E4,4.984536E4,2.287834E4,7.4760555E4,3.458713E4,5.2152754E3,8.08439E3,6.867812E2,3.6654592E3,8.986844E3,7.1887783E3,1.4744712E5,2.3492446E3,9.95982E4,2.7326956E3,6.116374E3,2.5137004E3,9.376953E3,4.7779194E3,3.7729722E3,3.336435E1,3.6216921E3,2.478769E3,2.8181533E4,2.561539E3,3.5693552E2,1.4910817E3,1.26617305E5,6.1030234E3,1.0959284E4,1.9808928E4,6.209133E3,2.0349115E3,3.1891082E3,1.8185446E1,1.31958125E4,4.7951572E2,2.6397737E3,9.5406476E2,5.8288464E2,3.238105E1,1.7909675E3,2.8034902E3,4.2316023E4,7.612036E4,1.8225367E4,8.560746E3,1.6698094E4,4.670567E3,1.7722186E3,9.096706E2,8.163342E4,2.6004432E4,4.3511426E3,3.726113E4,1.5994123E4,3.3851234E4,1.3744024E4,9.134315E3,7.329853E4,1.4620236E3,3.3685555E4,9.0157745E2,4.8843145E3,3.3096124E2,8.0568706E3,2.7519636E1,4.872402E2,1.9954099E2,2.0016118E3,1.6638475E3,8.733664E3,2.5317952E2,5.3267427E3,1.8620354E3],"tree_param":{"num_deleted":"0","num_feature":"565","num_nodes":"127","size_leaf_vector":"0"}},{"base_weights":[-8.787253E-4,-1.7188337E-1,2.4898988E-1,-3.310538E-1,5.5869564E-2,1.8046798E-1,5.490334E-1,-5.354796E-1,-1.8129995E-1,1.8484926E-1,-1.7195119E-1,-8.097253E-2,2.5037813E-1,4.9184093E-1,6.726944E-1,-1.9428974E-1,-6.033006E-1,-2.620583E-1,1.3939491E-1,1.0834549E-1,5.667931E-1,-3.6800918E-1,1.7976664E-2,2.2032033E-1,-1.4749762E-1,3.2470816E-1,2.1937013E-2,5.237747E-1,3.112359E-1,5.21357E-1,7.0590216E-1,-4.3259E-2,-5.447022E-1,-7.3824656E-1,-4.3189496E-1,-3.2799616E-1,1.627057E-2,4.2979395E-1,-2.0634132E-2,5.258084E-2,5.368993E-1,6.6159487E-1,3.2669806E-1,-4.639141E-1,-3.366476E-2,9.662603E-2,-3.9639273E-1,2.885916E-1,-5.1187754E-2,-2.7880847E-1,4.9814228E-2,2.6775402E-1,5.5924565E-1,-9.04553E-2,2.2314747E-1,3.2865265E-1,5.56349E-1,3.217551E-1,-2.3822591E0,5.486714E-1,-1.9087E-1,6.514246E-1,7.8615505E-1,-3.048976E-2,2.3319255E-1,-2.1367864E-1,3.9286442E-2,-2.4099511E-1,-1.7232427E-1,-1.3340883E-1,4.3752468E-1,-1.3457982E-1,-6.0417075E-2,7.064378E-2,-2.8385831E-2,9.46242E-2,2.0558476E-1,-3.3185292E-2,7.0674896E-2,4.3136623E-2,-5.733015E-2,8.239971E-2,1.7739557E-1,2.1287392E-1,8.195354E-2,1.9126992E-1,7.137124E-2,-1.1028298E-1,-2.0286603E-1,2.9743548E-2,-1.1992297E-1,-1.2709012E-3,9.2880316E-2,-1.4921515E-1,1.9616967E-2,9.707542E-2,-8.718687E-2,-7.2622314E-2,1.9447869E-1,-3.6729106E-3,-1.2273691E-1,-2.230982E-2,1.3580963E-1,1.232932E-1,4.8795547E-2,1.8383253E-1,1.1745524E-1,-7.028771E-2,1.6972005E-2,4.077822E-2,1.422138E-1,7.8465775E-2,2.4266037E-1,1.3102603E-1,1.7954312E-1,2.9343665E-2,1.1862413E-1,-1.0689785E0,-7.318103E-2,1.6621219E-1,-5.281523E-1,-1.99448E-2,-1.2732062E0,1.1376012E-1,2.0044938E-1,2.447786E-1,2.0399119E-1],"categories":[],"categories_nodes":[],"categories_segments":[],"categories_sizes":[],"default_left":[0,0,0,0,0,0,0,0,0,0,0,0,0,0,0,0,0,0,0,0,0,0,0,0,0,0,0,0,0,0,0,0,0,0,0,0,0,0,0,0,0,0,0,0,0,0,0,0,0,0,0,0,0,0,0,0,0,0,0,0,0,0,0,0,0,0,0,0,0,0,0,0,0,0,0,0,0,0,0,0,0,0,0,0,0,0,0,0,0,0,0,0,0,0,0,0,0,0,0,0,0,0,0,0,0,0,0,0,0,0,0,0,0,0,0,0,0,0,0,0,0,0,0,0,0,0,0],"id":7,"left_children":[1,3,5,7,9,11,13,15,17,19,21,23,25,27,29,31,33,35,37,39,41,43,45,47,49,51,53,55,57,59,61,63,65,67,69,71,73,75,77,79,81,83,85,87,89,91,93,95,97,99,101,103,105,107,109,111,113,115,117,119,121,123,125,-1,-1,-1,-1,-1,-1,-1,-1,-1,-1,-1,-1,-1,-1,-1,-1,-1,-1,-1,-1,-1,-1,-1,-1,-1,-1,-1,-1,-1,-1,-1,-1,-1,-1,-1,-1,-1,-1,-1,-1,-1,-1,-1,-1,-1,-1,-1,-1,-1,-1,-1,-1,-1,-1,-1,-1,-1,-1,-1,-1,-1,-1,-1,-1],"loss_changes":[4.237258E4,2.1342848E4,8.283814E3,1.0609E4,7.116741E3,5.9952617E3,5.294629E2,3.3904922E3,5.180393E3,4.5186665E3,3.2601472E3,1.3871876E3,4.394573E3,2.9526465E2,1.1866797E2,1.2859087E3,2.826918E3,2.932462E3,1.8699751E3,3.0789893E3,5.8716895E2,1.3813721E3,1.4493721E3,2.3204138E2,1.4688218E3,2.6082617E3,1.4369093E3,2.764668E2,2.1889935E2,8.309619E1,8.439746E1,8.134506E2,8.286228E2,7.2858594E2,1.3035684E3,1.9723975E3,7.439689E2,4.1755298E2,5.981573E2,2.5338787E3,2.115332E2,3.4461133E2,2.0154828E2,6.8423193E2,4.6697305E2,8.0292993E2,3.3089685E2,2.0283038E2,3.3607773E2,1.1823972E3,1.1333827E3,2.3650654E3,3.4231152E2,8.621718E2,4.9826074E2,2.0051123E2,1.8765625E2,1.2647589E2,7.506578E1,5.1916504E1,7.952869E1,5.2490234E1,2.4256348E1,0E0,0E0,0E0,0E0,0E0,0E0,0E0,0E0,0E0,0E0,0E0,0E0,0E0,0E0,0E0,0E0,0E0,0E0,0E0,0E0,0E0,0E0,0E0,0E0,0E0,0E0,0E0,0E0,0E0,0E0,0E0,0E0,0E0,0E0,0E0,0E0,0E0,0E0,0E0,0E0,0E0,0E0,0E0,0E0,0E0,0E0,0E0,0E0,0E0,0E0,0E0,0E0,0E0,0E0,0E0,0E0,0E0,0E0,0E0,0E0,0E0,0E0,0E0,0E0],"parents":[2147483647,0,0,1,1,2,2,3,3,4,4,5,5,6,6,7,7,8,8,9,9,10,10,11,11,12,12,13,13,14,14,15,15,16,16,17,17,18,18,19,19,20,20,21,21,22,22,23,23,24,24,25,25,26,26,27,27,28,28,29,29,30,30,31,31,32,32,33,33,34,34,35,35,36,36,37,37,38,38,39,39,40,40,41,41,42,42,43,43,44,44,45,45,46,46,47,47,48,48,49,49,50,50,51,51,52,52,53,53,54,54,55,55,56,56,57,57,58,58,59,59,60,60,61,61,62,62],"right_children":[2,4,6,8,10,12,14,16,18,20,22,24,26,28,30,32,34,36,38,40,42,44,46,48,50,52,54,56,58,60,62,64,66,68,70,72,74,76,78,80,82,84,86,88,90,92,94,96,98,100,102,104,106,108,110,112,114,116,118,120,122,124,126,-1,-1,-1,-1,-1,-1,-1,-1,-1,-1,-1,-1,-1,-1,-1,-1,-1,-1,-1,-1,-1,-1,-1,-1,-1,-1,-1,-1,-1,-1,-1,-1,-1,-1,-1,-1,-1,-1,-1,-1,-1,-1,-1,-1,-1,-1,-1,-1,-1,-1,-1,-1,-1,-1,-1,-1,-1,-1,-1,-1,-1,-1,-1,-1],"split_conditions":[1E0,1E0,1E0,1E0,9.775E-1,1E0,1E0,9.685E-1,1E0,1E0,1E0,9.635E-1,1E0,1E0,1E0,9.950495E-1,1E0,1E0,1E0,1E0,1E0,1E0,1E0,3.9003646E-1,7.296533E-1,1E0,1E0,1E0,1E0,9.625056E-1,1E0,1E0,6.997471E-1,8.210088E-1,1E0,1E0,9.930693E-1,1E0,1E0,1E0,1E0,1E0,9.65E-1,9.746589E-4,1E0,1E0,1E0,1E0,7.051034E-1,1.9242997E-1,1E0,9.930693E-1,1E0,1E0,1E0,6.909917E-1,1E0,1E0,1E0,9.785E-1,1E0,1E0,1E0,-3.048976E-2,2.3319255E-1,-2.1367864E-1,3.9286442E-2,-2.4099511E-1,-1.7232427E-1,-1.3340883E-1,4.3752468E-1,-1.3457982E-1,-6.0417075E-2,7.064378E-2,-2.8385831E-2,9.46242E-2,2.0558476E-1,-3.3185292E-2,7.0674896E-2,4.3136623E-2,-5.733015E-2,8.239971E-2,1.7739557E-1,2.1287392E-1,8.195354E-2,1.9126992E-1,7.137124E-2,-1.1028298E-1,-2.0286603E-1,2.9743548E-2,-1.1992297E-1,-1.2709012E-3,9.2880316E-2,-1.4921515E-1,1.9616967E-2,9.707542E-2,-8.718687E-2,-7.2622314E-2,1.9447869E-1,-3.6729106E-3,-1.2273691E-1,-2.230982E-2,1.3580963E-1,1.232932E-1,4.8795547E-2,1.8383253E-1,1.1745524E-1,-7.028771E-2,1.6972005E-2,4.077822E-2,1.422138E-1,7.8465775E-2,2.4266037E-1,1.3102603E-1,1.7954312E-1,2.9343665E-2,1.1862413E-1,-1.0689785E0,-7.318103E-2,1.6621219E-1,-5.281523E-1,-1.99448E-2,-1.2732062E0,1.1376012E-1,2.0044938E-1,2.447786E-1,2.0399119E-1],"split_indices":[488,135,513,195,8,195,334,8,553,370,21,8,292,292,135,7,530,144,267,513,127,81,173,2,4,370,339,195,252,4,370,132,4,4,71,555,7,144,387,127,195,420,8,5,445,81,238,281,4,3,40,7,216,57,521,3,135,106,183,8,424,195,216,0,0,0,0,0,0,0,0,0,0,0,0,0,0,0,0,0,0,0,0,0,0,0,0,0,0,0,0,0,0,0,0,0,0,0,0,0,0,0,0,0,0,0,0,0,0,0,0,0,0,0,0,0,0,0,0,0,0,0,0,0,0,0,0],"split_type":[0,0,0,0,0,0,0,0,0,0,0,0,0,0,0,0,0,0,0,0,0,0,0,0,0,0,0,0,0,0,0,0,0,0,0,0,0,0,0,0,0,0,0,0,0,0,0,0,0,0,0,0,0,0,0,0,0,0,0,0,0,0,0,0,0,0,0,0,0,0,0,0,0,0,0,0,0,0,0,0,0,0,0,0,0,0,0,0,0,0,0,0,0,0,0,0,0,0,0,0,0,0,0,0,0,0,0,0,0,0,0,0,0,0,0,0,0,0,0,0,0,0,0,0,0,0,0],"sum_hessian":[9.916636E5,5.887418E5,4.029218E5,3.4654816E5,2.4219367E5,3.280138E5,7.4907984E4,1.46526E5,2.0002217E5,1.5464327E5,8.75504E4,6.92061E4,2.5880772E5,5.1222754E4,2.3685232E4,2.429715E4,1.2222885E5,1.5978486E5,4.0237316E4,1.28838125E5,2.5805139E4,4.307951E4,4.4470887E4,1.2516487E4,5.6689613E4,1.9527036E5,6.3537367E4,4.3524965E4,7.697788E3,4.265019E3,1.9420213E4,1.6979824E4,7.3173247E3,6.838596E4,5.384289E4,1.2918091E5,3.0603943E4,1.4295001E4,2.5942316E4,1.1400464E5,1.4833486E4,1.8499021E4,7.3061167E3,3.3476555E4,9.602957E3,3.7377266E4,7.0936235E3,1.0001521E4,2.5149658E3,3.4037367E4,2.2652246E4,1.5711848E5,3.8151875E4,4.076652E4,2.2770848E4,6.22828E3,3.7296684E4,7.6687188E3,2.9068932E1,4.107715E3,1.5730441E2,1.1573183E4,7.847031E3,1.5852954E4,1.1268713E3,5.8632188E3,1.4541062E3,4.8943016E4,1.9442943E4,5.348148E4,3.614099E2,6.615752E4,6.3023387E4,1.02804E4,2.0323543E4,9.875889E3,4.419112E3,1.919988E4,6.742434E3,8.295549E4,3.1049145E4,2.5502878E3,1.2283199E4,1.646421E4,2.0348112E3,1.6218445E3,5.6842725E3,2.3031816E4,1.0444737E4,7.047073E3,2.5558843E3,2.5365469E4,1.2011797E4,5.820593E3,1.2730306E3,9.432123E3,5.693984E2,1.9762753E3,5.3869055E2,1.1176441E4,2.2860926E4,1.7315836E4,5.3364106E3,6.649818E4,9.06203E4,2.8919684E4,9.232191E3,2.060662E4,2.01599E4,1.6898092E4,5.8727563E3,5.4660566E3,7.6222296E2,9.718535E3,2.757815E4,1.8986427E3,5.770076E3,1.8297037E1,1.0771894E1,4.0989443E3,8.770498E0,1.5360677E2,3.6976435E0,6.7181354E2,1.0901369E4,6.1233813E3,1.7236497E3],"tree_param":{"num_deleted":"0","num_feature":"565","num_nodes":"127","size_leaf_vector":"0"}},{"base_weights":[-1.0472399E-3,-1.3426432E-1,2.2142312E-1,-2.2974211E-1,1.4889401E-1,3.0222827E-1,2.2428187E-2,-3.5721833E-1,-4.1046113E-2,2.853769E-1,-1.6652877E-2,5.063362E-2,3.6283568E-1,-3.5921942E-2,4.5064834E-1,2.218943E-1,-3.9452818E-1,-7.875009E-2,3.7870362E-1,2.1680896E-1,4.9488813E-1,-1.3106309E-1,1.6689269E-1,-1.1093445E-1,1.580971E-1,4.178521E-1,1.730809E-1,-6.668824E-2,7.3949885E-1,5.022484E-1,-2.1787837E-2,2.937554E-2,4.046644E-1,-2.6097125E-1,-5.474208E-1,2.1311853E-2,-2.2914958E-1,4.7669902E-1,1.7569123E-1,4.2045653E-1,1.3928083E-1,5.499674E-1,2.2653443E-1,-5.4885037E-2,-3.4957826E-1,1.0901213E-1,5.8965415E-1,-1.9670205E-1,2.4503106E-1,1.1070774E-1,5.015133E-1,5.342993E-1,3.466526E-1,5.336672E-2,3.9065984E-1,-2.907659E-1,2.5176525E-2,9.519963E-1,5.416164E-1,5.925377E-1,3.7211007E-1,5.8542516E-2,-2.2729714E0,-3.4235243E-2,1.1704705E-1,1.8780132E-1,7.119568E-2,-1.5292713E-1,-3.957219E-2,-1.7088863E-1,2.8113095E-2,2.0236239E-2,-1.0306564E-1,1.6991884E-3,-1.0144932E-1,1.5236568E-1,1.1135289E-2,-2.1226449E-2,1.0702802E-1,7.318935E-2,1.4881931E-1,2.707274E-2,1.52154E-1,1.7996055E-1,1.0489302E-1,4.774966E-2,2.4813296E-1,-4.3089576E-2,6.856793E-2,-1.5445632E-1,-4.5125384E-2,6.427495E-2,-1.9618541E-2,1.8473837E-1,-3.0411002E-1,-8.669055E-2,1.4125018E-2,1.2726323E-1,-4.3310408E-2,4.7490116E-2,-1.0695279E-1,2.1641631E-1,4.1815042E-2,1.7165351E-1,1.01124614E-1,5.6873508E-2,1.2983732E-1,9.283206E-2,-1.4153227E-2,1.3040335E-1,-9.870589E-3,-1.0679001E-1,-3.241888E-3,-2.6648857E-2,4.7458675E-2,4.4579223E-1,2.541832E-1,-4.5436252E-2,1.8102504E-1,1.9608471E-1,1.14119895E-1,1.2885699E-1,-2.8900167E-3,8.171491E-2,-1.6347338E-1,-8.134862E-1,2.620291E-1],"categories":[],"categories_nodes":[],"categories_segments":[],"categories_sizes":[],"default_left":[0,0,0,0,0,0,0,0,0,0,0,0,0,0,0,0,0,0,0,0,0,0,0,0,0,0,0,0,0,0,0,0,0,0,0,0,0,0,0,0,0,0,0,0,0,0,0,0,0,0,0,0,0,0,0,0,0,0,0,0,0,0,0,0,0,0,0,0,0,0,0,0,0,0,0,0,0,0,0,0,0,0,0,0,0,0,0,0,0,0,0,0,0,0,0,0,0,0,0,0,0,0,0,0,0,0,0,0,0,0,0,0,0,0,0,0,0,0,0,0,0,0,0,0,0,0,0],"id":8,"left_children":[1,3,5,7,9,11,13,15,17,19,21,23,25,27,29,31,33,35,37,39,41,43,45,47,49,51,53,55,57,59,61,63,65,67,69,71,73,75,77,79,81,83,85,87,89,91,93,95,97,99,101,103,105,107,109,111,113,115,117,119,121,123,125,-1,-1,-1,-1,-1,-1,-1,-1,-1,-1,-1,-1,-1,-1,-1,-1,-1,-1,-1,-1,-1,-1,-1,-1,-1,-1,-1,-1,-1,-1,-1,-1,-1,-1,-1,-1,-1,-1,-1,-1,-1,-1,-1,-1,-1,-1,-1,-1,-1,-1,-1,-1,-1,-1,-1,-1,-1,-1,-1,-1,-1,-1,-1,-1],"loss_changes":[2.7983926E4,1.5966614E4,5.686545E3,1.0623783E4,3.3648228E3,3.8351895E3,2.5519692E3,5.69534E3,2.8182422E3,1.1725259E3,1.4132281E3,8.4778894E2,2.115912E3,2.1444326E3,2.985874E2,5.613816E2,5.0565312E3,2.4589956E3,2.9190747E2,9.709519E2,2.9736035E2,6.900717E2,6.3226807E2,5.955242E2,4.7716852E2,1.3025742E3,1.1866713E3,1.7796938E3,1.4372925E2,1.2952368E2,2.1839952E2,4.0235715E2,3.0300757E2,4.244049E3,1.6439805E3,1.6519133E3,1.6710115E3,1.3567725E2,2.1331929E2,2.2615918E2,8.036026E2,1.6671387E2,1.3861292E2,7.733269E2,3.5266687E2,4.1721973E2,1.3104236E2,3.5356134E2,2.643211E2,5.730647E2,2.8300305E2,4.4518164E2,1.3192686E3,7.567139E2,3.0149243E2,4.5886304E2,9.29911E2,9.11604E1,7.627167E1,8.419653E1,9.919183E1,1.506588E2,5.97975E1,0E0,0E0,0E0,0E0,0E0,0E0,0E0,0E0,0E0,0E0,0E0,0E0,0E0,0E0,0E0,0E0,0E0,0E0,0E0,0E0,0E0,0E0,0E0,0E0,0E0,0E0,0E0,0E0,0E0,0E0,0E0,0E0,0E0,0E0,0E0,0E0,0E0,0E0,0E0,0E0,0E0,0E0,0E0,0E0,0E0,0E0,0E0,0E0,0E0,0E0,0E0,0E0,0E0,0E0,0E0,0E0,0E0,0E0,0E0,0E0,0E0,0E0,0E0,0E0],"parents":[2147483647,0,0,1,1,2,2,3,3,4,4,5,5,6,6,7,7,8,8,9,9,10,10,11,11,12,12,13,13,14,14,15,15,16,16,17,17,18,18,19,19,20,20,21,21,22,22,23,23,24,24,25,25,26,26,27,27,28,28,29,29,30,30,31,31,32,32,33,33,34,34,35,35,36,36,37,37,38,38,39,39,40,40,41,41,42,42,43,43,44,44,45,45,46,46,47,47,48,48,49,49,50,50,51,51,52,52,53,53,54,54,55,55,56,56,57,57,58,58,59,59,60,60,61,61,62,62],"right_children":[2,4,6,8,10,12,14,16,18,20,22,24,26,28,30,32,34,36,38,40,42,44,46,48,50,52,54,56,58,60,62,64,66,68,70,72,74,76,78,80,82,84,86,88,90,92,94,96,98,100,102,104,106,108,110,112,114,116,118,120,122,124,126,-1,-1,-1,-1,-1,-1,-1,-1,-1,-1,-1,-1,-1,-1,-1,-1,-1,-1,-1,-1,-1,-1,-1,-1,-1,-1,-1,-1,-1,-1,-1,-1,-1,-1,-1,-1,-1,-1,-1,-1,-1,-1,-1,-1,-1,-1,-1,-1,-1,-1,-1,-1,-1,-1,-1,-1,-1,-1,-1,-1,-1,-1,-1,-1],"split_conditions":[1E0,1E0,1E0,1E0,9.75E-1,1E0,1E0,9.625E-1,1E0,1E0,1E0,1E0,1E0,1E0,9.815E-1,1E0,6.497726E-4,6.497726E-4,1E0,9.645E-1,1E0,9.825E-1,1E0,1E0,6.787282E-1,1E0,1E0,1E0,1E0,1E0,1E0,1E0,9.6E-1,3.1236056E-3,1E0,1E0,9.930693E-1,1E0,6.060606E-3,1E0,1E0,1E0,1E0,1E0,9.9752474E-1,9.82E-1,1E0,1E0,3.8137776E-1,1E0,1E0,1E0,1E0,9.66E-1,1E0,1E0,1E0,1E0,1E0,9.9851483E-1,9.746589E-4,8.66919E-1,1E0,-3.4235243E-2,1.1704705E-1,1.8780132E-1,7.119568E-2,-1.5292713E-1,-3.957219E-2,-1.7088863E-1,2.8113095E-2,2.0236239E-2,-1.0306564E-1,1.6991884E-3,-1.0144932E-1,1.5236568E-1,1.1135289E-2,-2.1226449E-2,1.0702802E-1,7.318935E-2,1.4881931E-1,2.707274E-2,1.52154E-1,1.7996055E-1,1.0489302E-1,4.774966E-2,2.4813296E-1,-4.3089576E-2,6.856793E-2,-1.5445632E-1,-4.5125384E-2,6.427495E-2,-1.9618541E-2,1.8473837E-1,-3.0411002E-1,-8.669055E-2,1.4125018E-2,1.2726323E-1,-4.3310408E-2,4.7490116E-2,-1.0695279E-1,2.1641631E-1,4.1815042E-2,1.7165351E-1,1.01124614E-1,5.6873508E-2,1.2983732E-1,9.283206E-2,-1.4153227E-2,1.3040335E-1,-9.870589E-3,-1.0679001E-1,-3.241888E-3,-2.6648857E-2,4.7458675E-2,4.4579223E-1,2.541832E-1,-4.5436252E-2,1.8102504E-1,1.9608471E-1,1.14119895E-1,1.2885699E-1,-2.8900167E-3,8.171491E-2,-1.6347338E-1,-8.134862E-1,2.620291E-1],"split_indices":[262,427,216,555,8,195,352,8,352,387,387,530,80,58,8,195,5,5,233,8,292,8,179,555,3,267,387,21,501,482,11,32,8,1,352,353,7,318,0,9,352,482,474,81,7,8,545,32,3,292,560,240,106,8,445,339,387,106,21,7,5,3,55,0,0,0,0,0,0,0,0,0,0,0,0,0,0,0,0,0,0,0,0,0,0,0,0,0,0,0,0,0,0,0,0,0,0,0,0,0,0,0,0,0,0,0,0,0,0,0,0,0,0,0,0,0,0,0,0,0,0,0,0,0,0,0,0],"split_type":[0,0,0,0,0,0,0,0,0,0,0,0,0,0,0,0,0,0,0,0,0,0,0,0,0,0,0,0,0,0,0,0,0,0,0,0,0,0,0,0,0,0,0,0,0,0,0,0,0,0,0,0,0,0,0,0,0,0,0,0,0,0,0,0,0,0,0,0,0,0,0,0,0,0,0,0,0,0,0,0,0,0,0,0,0,0,0,0,0,0,0,0,0,0,0,0,0,0,0,0,0,0,0,0,0,0,0,0,0,0,0,0,0,0,0,0,0,0,0,0,0,0,0,0,0,0,0],"sum_hessian":[9.442254E5,5.90581E5,3.5364434E5,4.4165884E5,1.4892219E5,2.515129E5,1.02131445E5,2.6358762E5,1.780712E5,8.162601E4,6.729618E4,4.8826258E4,2.0268666E5,8.9884516E4,1.2246927E4,1.5953721E4,2.4763392E5,1.6339506E5,1.4676133E4,6.150044E4,2.0125566E4,4.145571E4,2.5840473E4,1.9503422E4,2.9322834E4,1.5712852E5,4.555814E4,8.645516E4,3.4293591E3,1.1040957E4,1.2059698E3,7.770215E3,8.1835054E3,1.3217622E5,1.15457695E5,9.8117555E4,6.5277508E4,9.897295E3,4.7788374E3,1.69562E4,4.4544242E4,1.6697398E4,3.4281697E3,3.0740357E4,1.0715353E4,2.2729781E4,3.1106917E3,1.5716968E4,3.786455E3,2.576829E4,3.554546E3,5.9617406E4,9.75111E4,2.9389164E4,1.6168977E4,2.513744E4,6.131772E4,1.6517764E3,1.7775828E3,6.5163755E3,4.5245815E3,1.1653596E3,4.061024E1,5.559662E3,2.2105527E3,3.5221643E3,4.6613413E3,4.5147055E4,8.7029164E4,1.1159239E5,3.8653066E3,8.710295E4,1.1014603E4,2.0697299E4,4.4580207E4,9.241492E3,6.558028E2,2.0242777E3,2.7545598E3,5.0866387E3,1.1869561E4,3.9306242E4,5.2379995E3,1.3365926E4,3.331472E3,3.0835417E3,3.4462796E2,2.3410877E4,7.3294795E3,5.8549507E3,4.8604014E3,1.4175829E4,8.553952E3,3.061396E3,4.9295727E1,1.140158E4,4.315387E3,2.593145E3,1.1933099E3,2.3386686E4,2.3816023E3,2.2110625E3,1.3434833E3,5.001016E4,9.607244E3,3.453657E4,6.2974535E4,8.285344E3,2.110382E4,1.4646806E4,1.5221711E3,2.0388758E4,4.7486807E3,3.3018785E4,2.8298932E4,2.6865833E2,1.383118E3,1.4540984E2,1.632173E3,5.0580117E3,1.4583638E3,3.932951E3,5.9163043E2,8.608548E2,3.0450476E2,3.5762646E1,4.8475947E0],"tree_param":{"num_deleted":"0","num_feature":"565","num_nodes":"127","size_leaf_vector":"0"}},{"base_weights":[-8.115825E-4,-1.336233E-1,1.557476E-1,-1.9954774E-1,1.6381843E-1,2.5603428E-1,1.9913747E-3,-3.0037838E-1,-1.4950562E-2,2.2657868E-1,-5.2861646E-2,1.9063719E-1,4.3231288E-1,-1.4484844E-2,1.0754292E0,1.2034466E-1,-3.5850367E-1,5.003006E-2,-3.4688374E-1,1.5722406E-1,4.163575E-1,-1.0041474E-1,3.5355914E-1,2.530267E-1,-4.7718305E-2,4.89995E-1,2.5103363E-1,-5.387508E-2,3.7958416E-1,1.0895774E0,-7.1938705E-1,3.9798754E-1,6.848765E-3,-4.7532678E-1,-2.4336609E-1,1.3050964E-2,5.1539207E-1,-7.775307E-2,-5.0737876E-1,2.1567672E-1,-1.4972423E-1,4.9081263E-1,2.2017328E-1,-8.446465E-3,-3.4840158E-1,4.814776E-1,-3.181691E-1,2.9710904E-1,-4.7674313E-2,-1.1981263E-1,3.1811947E-1,5.1800555E-1,2.2274771E-1,1.8558176E-1,5.0690854E-1,1.2152576E-3,-3.240511E-1,2.677304E-1,5.853563E-1,1.3609185E0,9.062278E-1,7.458658E-2,1.5110004E-1,-2.1133022E-2,9.93236E-2,-1.740333E-1,-8.360639E-2,-8.6877495E-2,1.1585857E-2,1.262196E-1,-1.0066466E-2,1.5930252E-1,-2.6685497E-1,-2.4644455E-2,2.6000223E0,-1.588038E-1,2.1788159E-1,4.6969935E-2,1.333551E-1,-1.0297055E-1,4.39507E-3,1.4647509E-1,2.0110652E0,-2.195691E-2,1.1149464E-1,-4.6574265E-2,3.47113E-2,-1.5651949E-1,-2.5005048E-2,2.2675319E-1,6.848858E-2,7.954824E-2,-2.973048E-1,7.5194314E-2,1.548707E-1,-8.721049E-2,1.539713E-2,1.46555435E-2,-7.069574E-2,1.0336166E-1,-3.481959E-2,1.4657918E-1,2.0338106E-1,2.7557349E-2,1.425815E-1,4.0035788E-2,1.3036242E-1,1.2336107E-1,2.0988454E-1,-2.304789E-2,6.43039E-2,-1.1455301E-1,2.1845985E-2,5.7206407E-2,1.7115548E-1,1.7767134E-1,-1.034548E0,5.031222E-1,2.8674355E-1,2.761244E-1,-7.753349E-1],"categories":[],"categories_nodes":[],"categories_segments":[],"categories_sizes":[],"default_left":[0,0,0,0,0,0,0,0,0,0,0,0,0,0,0,0,0,0,0,0,0,0,0,0,0,0,0,0,0,0,0,0,0,0,0,0,0,0,0,0,0,0,0,0,0,0,0,0,0,0,0,0,0,0,0,0,0,0,0,0,0,0,0,0,0,0,0,0,0,0,0,0,0,0,0,0,0,0,0,0,0,0,0,0,0,0,0,0,0,0,0,0,0,0,0,0,0,0,0,0,0,0,0,0,0,0,0,0,0,0,0,0,0,0,0,0,0,0,0,0,0],"id":9,"left_children":[1,3,5,7,9,11,13,15,17,19,21,23,25,27,29,31,33,35,37,39,41,43,45,47,49,51,53,55,57,59,-1,61,63,65,67,69,71,73,75,77,79,81,83,85,87,89,91,93,95,97,99,101,103,105,107,109,111,113,115,117,119,-1,-1,-1,-1,-1,-1,-1,-1,-1,-1,-1,-1,-1,-1,-1,-1,-1,-1,-1,-1,-1,-1,-1,-1,-1,-1,-1,-1,-1,-1,-1,-1,-1,-1,-1,-1,-1,-1,-1,-1,-1,-1,-1,-1,-1,-1,-1,-1,-1,-1,-1,-1,-1,-1,-1,-1,-1,-1,-1,-1],"loss_changes":[1.8857484E4,9.621487E3,6.4183936E3,7.4759727E3,1.2106116E3,2.904166E3,2.9062026E3,6.3524805E3,3.0604612E3,9.0849023E2,3.8646008E2,2.7326587E3,7.1270703E2,2.5121223E3,1.2468359E2,9.936238E2,3.0697832E3,2.0419885E3,1.0033386E3,9.0709155E2,2.6974292E2,4.0826074E2,1.8013583E2,1.9305312E3,1.0054851E3,3.8700195E2,2.7552808E2,2.1899055E3,3.3834253E2,1.2188086E2,0E0,1.4430078E2,5.6096857E2,2.3340547E3,1.4983467E3,2.0886592E3,1.9211401E2,3.3427234E2,3.9472803E2,5.743926E2,2.5726508E2,2.0990088E2,2.2595634E2,2.3802728E2,2.2243713E2,1.22081024E2,1.3201231E2,1.2930244E3,4.480318E2,6.222296E2,7.203125E1,2.1981836E2,1.6217186E2,1.7004294E2,6.1527588E1,2.0327802E3,5.7158325E2,2.2219318E2,1.4578418E2,1.2594629E2,7.565881E1,0E0,0E0,0E0,0E0,0E0,0E0,0E0,0E0,0E0,0E0,0E0,0E0,0E0,0E0,0E0,0E0,0E0,0E0,0E0,0E0,0E0,0E0,0E0,0E0,0E0,0E0,0E0,0E0,0E0,0E0,0E0,0E0,0E0,0E0,0E0,0E0,0E0,0E0,0E0,0E0,0E0,0E0,0E0,0E0,0E0,0E0,0E0,0E0,0E0,0E0,0E0,0E0,0E0,0E0,0E0,0E0,0E0,0E0,0E0,0E0],"parents":[2147483647,0,0,1,1,2,2,3,3,4,4,5,5,6,6,7,7,8,8,9,9,10,10,11,11,12,12,13,13,14,14,15,15,16,16,17,17,18,18,19,19,20,20,21,21,22,22,23,23,24,24,25,25,26,26,27,27,28,28,29,29,31,31,32,32,33,33,34,34,35,35,36,36,37,37,38,38,39,39,40,40,41,41,42,42,43,43,44,44,45,45,46,46,47,47,48,48,49,49,50,50,51,51,52,52,53,53,54,54,55,55,56,56,57,57,58,58,59,59,60,60],"right_children":[2,4,6,8,10,12,14,16,18,20,22,24,26,28,30,32,34,36,38,40,42,44,46,48,50,52,54,56,58,60,-1,62,64,66,68,70,72,74,76,78,80,82,84,86,88,90,92,94,96,98,100,102,104,106,108,110,112,114,116,118,120,-1,-1,-1,-1,-1,-1,-1,-1,-1,-1,-1,-1,-1,-1,-1,-1,-1,-1,-1,-1,-1,-1,-1,-1,-1,-1,-1,-1,-1,-1,-1,-1,-1,-1,-1,-1,-1,-1,-1,-1,-1,-1,-1,-1,-1,-1,-1,-1,-1,-1,-1,-1,-1,-1,-1,-1,-1,-1,-1,-1],"split_conditions":[1E0,1E0,9.745E-1,7.3593073E-3,1E0,1E0,1E0,9.64E-1,6.497726E-4,1E0,1E0,1E0,1E0,1E0,3.931124E-2,9.6E-1,1E0,1E0,1.707797E-1,1E0,1E0,1E0,1E0,1E0,1E0,9.990099E-1,1E0,1E0,1E0,1E0,-7.1938705E-1,1E0,1E0,8.123791E-1,1E0,7.69115E-2,1E0,1E0,1E0,1E0,1E0,1E0,9.960396E-1,1E0,1.7402945E-2,1E0,9.7E-1,1E0,1E0,9.930693E-1,9.995049E-1,1E0,1E0,1E0,1E0,1E0,1E0,1E0,1E0,1E0,1E0,7.458658E-2,1.5110004E-1,-2.1133022E-2,9.93236E-2,-1.740333E-1,-8.360639E-2,-8.6877495E-2,1.1585857E-2,1.262196E-1,-1.0066466E-2,1.5930252E-1,-2.6685497E-1,-2.4644455E-2,2.6000223E0,-1.588038E-1,2.1788159E-1,4.6969935E-2,1.333551E-1,-1.0297055E-1,4.39507E-3,1.4647509E-1,2.0110652E0,-2.195691E-2,1.1149464E-1,-4.6574265E-2,3.47113E-2,-1.5651949E-1,-2.5005048E-2,2.2675319E-1,6.848858E-2,7.954824E-2,-2.973048E-1,7.5194314E-2,1.548707E-1,-8.721049E-2,1.539713E-2,1.46555435E-2,-7.069574E-2,1.0336166E-1,-3.481959E-2,1.4657918E-1,2.0338106E-1,2.7557349E-2,1.425815E-1,4.0035788E-2,1.3036242E-1,1.2336107E-1,2.0988454E-1,-2.304789E-2,6.43039E-2,-1.1455301E-1,2.1845985E-2,5.7206407E-2,1.7115548E-1,1.7767134E-1,-1.034548E0,5.031222E-1,2.8674355E-1,2.761244E-1,-7.753349E-1],"split_indices":[106,79,8,0,240,387,133,8,5,387,352,50,292,474,5,8,195,352,3,482,292,292,50,292,511,7,145,353,406,262,0,195,513,4,144,6,335,46,122,81,21,98,7,555,1,555,8,370,21,7,7,352,352,352,376,144,352,334,215,435,61,0,0,0,0,0,0,0,0,0,0,0,0,0,0,0,0,0,0,0,0,0,0,0,0,0,0,0,0,0,0,0,0,0,0,0,0,0,0,0,0,0,0,0,0,0,0,0,0,0,0,0,0,0,0,0,0,0,0,0,0],"split_type":[0,0,0,0,0,0,0,0,0,0,0,0,0,0,0,0,0,0,0,0,0,0,0,0,0,0,0,0,0,0,0,0,0,0,0,0,0,0,0,0,0,0,0,0,0,0,0,0,0,0,0,0,0,0,0,0,0,0,0,0,0,0,0,0,0,0,0,0,0,0,0,0,0,0,0,0,0,0,0,0,0,0,0,0,0,0,0,0,0,0,0,0,0,0,0,0,0,0,0,0,0,0,0,0,0,0,0,0,0,0,0,0,0,0,0,0,0,0,0,0,0],"sum_hessian":[9.0691756E5,4.9067234E5,4.1624525E5,4.016514E5,8.902093E4,2.5192673E5,1.6431852E5,2.5976305E5,1.4188838E5,6.902745E4,1.999348E4,1.8375723E5,6.816949E4,1.6183548E5,2.4830295E3,3.1531361E4,2.2823169E5,1.1865987E5,2.3228502E4,5.0554242E4,1.8473207E4,1.7899867E4,2.0936133E3,1.4563678E5,3.812046E4,5.171298E4,1.6456514E4,1.4712961E5,1.4705875E4,2.47364E3,9.389627E0,9.14866E3,2.2382701E4,1.1328506E5,1.1494662E5,1.0992585E5,8.734019E3,8.678012E3,1.4550489E4,4.2467402E4,8.0868403E3,1.3389985E4,5.083222E3,1.3058158E4,4.841708E3,1.7589386E3,3.346747E2,1.2701637E5,1.8620408E4,3.1845465E4,6.2749976E3,4.6806215E4,4.9067646E3,1.3105817E4,3.3506956E3,1.222111E5,2.4918502E4,9.528609E3,5.1772656E3,9.9488135E2,1.4787585E3,3.7921868E3,5.356473E3,1.8074709E4,4.307992E3,7.390232E4,3.9382742E4,9.8757414E4,1.6189205E4,1.1276605E4,9.864924E4,8.638618E3,9.5400795E1,8.674643E3,3.3693938E0,1.4296487E4,2.5400194E2,3.3751062E4,8.71634E3,3.7137344E3,4.373106E3,1.3385543E4,4.4420724E0,1.7311046E3,3.3521174E3,5.983165E3,7.0749937E3,2.926777E3,1.9149309E3,8.432009E2,9.157377E2,1.7958661E2,1.550881E2,1.0479818E5,2.2218184E4,5.3890527E3,1.3231355E4,1.2966555E4,1.887891E4,5.9152705E3,3.59727E2,3.953967E4,7.266542E3,3.2325908E3,1.674174E3,1.0838007E4,2.2678108E3,2.240912E3,1.1097836E3,8.945594E4,3.2755168E4,2.1751145E4,3.1673574E3,7.597185E3,1.9314246E3,5.1693003E3,7.965237E0,5.5702515E2,4.3785623E2,1.4735062E3,5.252299E0],"tree_param":{"num_deleted":"0","num_feature":"565","num_nodes":"121","size_leaf_vector":"0"}},{"base_weights":[-7.142147E-4,-4.8940342E-2,3.215456E-1,-2.5255674E-1,2.315835E-2,3.9326608E-1,1.236939E-1,-1.4262088E-1,-4.8204398E-1,-3.2944568E-2,2.1464632E-1,4.6069965E-1,2.1374813E-1,1.600079E-1,-4.3612882E-1,-2.8359056E-1,-2.7662704E-3,-6.3441384E-1,-2.8856784E-1,2.1839318E-4,-3.0779585E-1,2.8682756E-1,5.4411717E-2,4.8317602E-1,1.4242864E-2,1.2951641E-1,3.9229316E-1,7.836497E-2,3.3094928E-1,-1.8144455E-2,-6.690413E-1,-3.8105804E-1,-3.657024E-2,1.4161111E-1,-1.6363375E-1,-6.764656E-1,-1.13354295E-1,-3.8113543E-1,1.1518973E-1,-5.9902392E-2,2.0199639E-1,-3.6358023E-1,7.577939E-3,3.6818278E-1,1.9664933E-1,2.6602216E-2,5.026134E-1,5.234473E-1,2.258786E-1,7.662403E-2,-1.115635E0,6.527988E-2,3.5476056E-1,4.8899925E-1,2.8282002E-1,1.6978768E-1,-1.10727504E-1,2.6682636E-1,5.6925815E-1,1.1057259E0,-2.58825E-1,-7.228347E-1,2.357076E0,-7.9674065E-2,-1.5211146E-1,6.715874E-2,-7.2723545E-2,7.367809E-2,-1.1427116E-2,-7.104784E-2,7.1354605E-2,-2.3558514E-1,-1.5447816E-1,-3.8386494E-2,3.6744134E0,-1.24971345E-1,2.7652722E-2,4.960048E-2,-3.760563E-1,-3.4684267E-2,3.48602E-2,8.5749924E-2,-1.5070955E-2,-1.24904715E-1,2.2626115E-2,-4.0609464E-2,7.312258E-2,1.16629295E-1,1.2234544E-3,4.4062793E-2,1.5164252E-1,-7.8047654E-3,6.525957E-2,1.5684189E-1,-3.3673945E-1,1.6977952E-1,1.01378836E-1,1.3361751E-2,1.07215255E-1,8.6080715E-2,-7.2107054E-2,-4.0467003E-1,5.44711E-1,3.307558E-2,-8.640537E-2,1.0738739E-1,-1.2452084E0,8.348615E-2,1.5856682E-1,9.4073884E-2,-1.6037023E-1,1.1242232E-2,9.362719E-2,-6.1431434E-2,9.211723E-2,8.116965E-2,-1.0584936E0,1.8159758E-1,-2.9748788E-1,2.3770767E-1,3.3372366E0,-2.4537908E-2,-4.520701E-1,-4.0122616E-1,-1.5007442E-1,-4.211368E-1,8.312839E-1],"categories":[],"categories_nodes":[],"categories_segments":[],"categories_sizes":[],"default_left":[0,0,0,0,0,0,0,0,0,0,0,0,0,0,0,0,0,0,0,0,0,0,0,0,0,0,0,0,0,0,0,0,0,0,0,0,0,0,0,0,0,0,0,0,0,0,0,0,0,0,0,0,0,0,0,0,0,0,0,0,0,0,0,0,0,0,0,0,0,0,0,0,0,0,0,0,0,0,0,0,0,0,0,0,0,0,0,0,0,0,0,0,0,0,0,0,0,0,0,0,0,0,0,0,0,0,0,0,0,0,0,0,0,0,0,0,0,0,0,0,0,0,0,0,0,0,0],"id":10,"left_children":[1,3,5,7,9,11,13,15,17,19,21,23,25,27,29,31,33,35,37,39,41,43,45,47,49,51,53,55,57,59,61,63,65,67,69,71,73,75,77,79,81,83,85,87,89,91,93,95,97,99,101,103,105,107,109,111,113,115,117,119,121,123,125,-1,-1,-1,-1,-1,-1,-1,-1,-1,-1,-1,-1,-1,-1,-1,-1,-1,-1,-1,-1,-1,-1,-1,-1,-1,-1,-1,-1,-1,-1,-1,-1,-1,-1,-1,-1,-1,-1,-1,-1,-1,-1,-1,-1,-1,-1,-1,-1,-1,-1,-1,-1,-1,-1,-1,-1,-1,-1,-1,-1,-1,-1,-1,-1],"loss_changes":[1.3642019E4,1.1208948E4,1.6213281E3,5.037135E3,6.05766E3,1.01508984E3,6.181066E2,2.661433E3,1.9062139E3,3.9749917E3,1.4777637E3,6.1172266E2,3.4436768E2,3.984218E2,1.8030356E2,1.6186172E3,1.573927E3,7.925957E2,1.0649485E3,4.720769E3,8.2605176E2,6.461841E2,4.9460184E2,6.0126465E2,2.0610422E2,2.2514185E2,7.7572876E1,3.340632E2,1.4086029E2,1.7983878E2,1.953164E2,7.0118164E2,1.0198075E3,6.673526E2,9.4194653E2,5.880176E2,4.893708E2,3.887942E2,3.6498428E2,2.9415142E3,1.8890549E3,9.242549E2,2.3829655E2,3.470254E2,6.421509E2,3.7539154E2,7.6661255E1,3.953379E2,1.8733804E2,1.8479399E2,1.07066315E2,1.9244131E2,5.1229126E1,3.2327454E1,8.679172E1,2.452475E2,2.4751941E2,1.0416547E2,1.1069702E2,3.5934875E2,1.2085205E2,1.5929858E2,3.6589317E1,0E0,0E0,0E0,0E0,0E0,0E0,0E0,0E0,0E0,0E0,0E0,0E0,0E0,0E0,0E0,0E0,0E0,0E0,0E0,0E0,0E0,0E0,0E0,0E0,0E0,0E0,0E0,0E0,0E0,0E0,0E0,0E0,0E0,0E0,0E0,0E0,0E0,0E0,0E0,0E0,0E0,0E0,0E0,0E0,0E0,0E0,0E0,0E0,0E0,0E0,0E0,0E0,0E0,0E0,0E0,0E0,0E0,0E0,0E0,0E0,0E0,0E0,0E0,0E0],"parents":[2147483647,0,0,1,1,2,2,3,3,4,4,5,5,6,6,7,7,8,8,9,9,10,10,11,11,12,12,13,13,14,14,15,15,16,16,17,17,18,18,19,19,20,20,21,21,22,22,23,23,24,24,25,25,26,26,27,27,28,28,29,29,30,30,31,31,32,32,33,33,34,34,35,35,36,36,37,37,38,38,39,39,40,40,41,41,42,42,43,43,44,44,45,45,46,46,47,47,48,48,49,49,50,50,51,51,52,52,53,53,54,54,55,55,56,56,57,57,58,58,59,59,60,60,61,61,62,62],"right_children":[2,4,6,8,10,12,14,16,18,20,22,24,26,28,30,32,34,36,38,40,42,44,46,48,50,52,54,56,58,60,62,64,66,68,70,72,74,76,78,80,82,84,86,88,90,92,94,96,98,100,102,104,106,108,110,112,114,116,118,120,122,124,126,-1,-1,-1,-1,-1,-1,-1,-1,-1,-1,-1,-1,-1,-1,-1,-1,-1,-1,-1,-1,-1,-1,-1,-1,-1,-1,-1,-1,-1,-1,-1,-1,-1,-1,-1,-1,-1,-1,-1,-1,-1,-1,-1,-1,-1,-1,-1,-1,-1,-1,-1,-1,-1,-1,-1,-1,-1,-1,-1,-1,-1,-1,-1,-1],"split_conditions":[1E0,1E0,1E0,9.775E-1,1E0,1E0,9.84E-1,1E0,8.232406E-1,1E0,1E0,9.825E-1,1E0,1E0,1E0,1E0,9.69E-1,1E0,1E0,1E0,7.837181E-1,2.454435E-1,1E0,1E0,1E0,1E0,9.68E-1,1E0,1E0,1E0,1E0,9.9455446E-1,1E0,9.9455446E-1,5.774605E-1,1E0,1E0,1E0,1E0,1E0,1E0,1E0,1E0,1E0,1E0,1E0,1E0,1E0,1E0,1.4042746E-1,1E0,9.122155E-1,1E0,1E0,1.8843405E-2,1E0,4.805195E-2,1E0,9.81E-1,1E0,1E0,3.1236056E-3,1E0,-7.9674065E-2,-1.5211146E-1,6.715874E-2,-7.2723545E-2,7.367809E-2,-1.1427116E-2,-7.104784E-2,7.1354605E-2,-2.3558514E-1,-1.5447816E-1,-3.8386494E-2,3.6744134E0,-1.24971345E-1,2.7652722E-2,4.960048E-2,-3.760563E-1,-3.4684267E-2,3.48602E-2,8.5749924E-2,-1.5070955E-2,-1.24904715E-1,2.2626115E-2,-4.0609464E-2,7.312258E-2,1.16629295E-1,1.2234544E-3,4.4062793E-2,1.5164252E-1,-7.8047654E-3,6.525957E-2,1.5684189E-1,-3.3673945E-1,1.6977952E-1,1.01378836E-1,1.3361751E-2,1.07215255E-1,8.6080715E-2,-7.2107054E-2,-4.0467003E-1,5.44711E-1,3.307558E-2,-8.640537E-2,1.0738739E-1,-1.2452084E0,8.348615E-2,1.5856682E-1,9.4073884E-2,-1.6037023E-1,1.1242232E-2,9.362719E-2,-6.1431434E-2,9.211723E-2,8.116965E-2,-1.0584936E0,1.8159758E-1,-2.9748788E-1,2.3770767E-1,3.3372366E0,-2.4537908E-2,-4.520701E-1,-4.0122616E-1,-1.5007442E-1,-4.211368E-1,8.312839E-1],"split_indices":[370,530,80,8,256,127,8,9,4,353,216,8,334,334,9,32,8,339,21,339,2,2,71,420,240,513,8,240,179,467,433,7,267,7,2,195,242,256,529,387,482,352,398,353,352,376,498,451,365,6,515,4,522,135,5,57,0,278,8,83,146,1,432,0,0,0,0,0,0,0,0,0,0,0,0,0,0,0,0,0,0,0,0,0,0,0,0,0,0,0,0,0,0,0,0,0,0,0,0,0,0,0,0,0,0,0,0,0,0,0,0,0,0,0,0,0,0,0,0,0,0,0,0,0,0,0,0],"split_type":[0,0,0,0,0,0,0,0,0,0,0,0,0,0,0,0,0,0,0,0,0,0,0,0,0,0,0,0,0,0,0,0,0,0,0,0,0,0,0,0,0,0,0,0,0,0,0,0,0,0,0,0,0,0,0,0,0,0,0,0,0,0,0,0,0,0,0,0,0,0,0,0,0,0,0,0,0,0,0,0,0,0,0,0,0,0,0,0,0,0,0,0,0,0,0,0,0,0,0,0,0,0,0,0,0,0,0,0,0,0,0,0,0,0,0,0,0,0,0,0,0,0,0,0,0,0,0],"sum_hessian":[8.7778694E5,7.6352625E5,1.1426073E5,1.9965922E5,5.63867E5,8.3860586E4,3.0400137E4,1.3499262E5,6.4666598E4,4.3609806E5,1.2776894E5,6.096015E4,2.2900441E4,2.8548967E4,1.8511703E3,6.72278E4,6.7764836E4,3.6175074E4,2.8491525E4,3.891456E5,4.695247E4,8.808727E4,3.968166E4,5.8038195E4,2.9219524E3,1.5560995E4,7.339446E3,1.932206E4,9.226906E3,6.627958E2,1.1883745E3,4.820634E4,1.9021453E4,3.5712895E4,3.205194E4,3.3473332E4,2.7017402E3,2.317773E4,5.313794E3,2.998149E5,8.933069E4,3.9895473E4,7.0569985E3,4.6307453E4,4.177982E4,3.736438E4,2.3172825E3,5.0182742E4,7.855453E3,2.769954E3,1.5199847E2,1.2108973E4,3.452022E3,3.895119E3,3.444327E3,1.3024876E4,6.297184E3,7.2722476E3,1.9546586E3,1.1627049E2,5.4652527E2,1.1683663E3,2.0008198E1,2.5153172E4,2.3053168E4,8.397177E3,1.0624275E4,2.2622332E4,1.3090561E4,2.7110043E4,4.9418955E3,1.9998049E4,1.3475282E4,2.6995413E3,2.1989174E0,2.1563447E4,1.6142844E3,5.126842E3,1.8695195E2,2.2776098E5,7.205394E4,6.704595E4,2.2284734E4,3.5614574E4,4.280895E3,4.396412E3,2.6605864E3,4.3829848E4,2.4776077E3,3.598208E4,5.797745E3,2.9292543E4,8.071836E3,2.2895117E3,2.7770681E1,4.083035E4,9.352393E3,3.3026318E3,4.5528213E3,1.6652094E3,1.1047448E3,1.412946E2,1.0703866E1,1.0742256E4,1.3667172E3,3.450494E3,1.5281748E0,6.1692114E2,3.2781978E3,3.320006E3,1.24320694E2,6.7499873E3,6.2748887E3,5.1405493E3,1.1566346E3,7.2660176E3,6.230057E0,1.9111111E3,4.354747E1,1.1379031E2,2.4801753E0,4.795671E2,6.6958176E1,3.093125E2,8.5905383E2,1.7464294E0,1.8261768E1],"tree_param":{"num_deleted":"0","num_feature":"565","num_nodes":"127","size_leaf_vector":"0"}},{"base_weights":[-7.3191617E-4,-1.1278957E-1,1.02733396E-1,7.1428016E-2,-1.7821652E-1,3.175428E-1,5.2632906E-2,1.608649E-1,-7.578666E-2,-2.7879983E-1,-5.3770453E-2,1.6891205E-1,4.1090718E-1,1.4535488E-2,3.181816E-1,2.9747286E-1,4.8581015E-2,-1.6842361E-1,1.4248839E-1,-3.0118245E-1,2.6733285E-1,-8.9964904E-2,2.4278021E-1,2.8317356E-1,6.428971E-2,2.0884687E-1,4.5501557E-1,8.119483E-2,-1.39048E-1,4.4936064E-1,2.2578041E-1,1.3723634E-1,4.076688E-1,-4.256373E-2,2.0261861E-1,-2.1499412E-1,5.308616E-1,2.8015062E-1,-7.907887E-2,-3.4658033E-1,-1.9196907E-2,2.6193509E-1,2.5817246E0,-3.7408255E-2,-2.622617E-1,1.7206141E-1,7.638469E-1,1.3061169E-1,3.3610693E-1,-1.7334047E-1,1.229847E-1,1.664243E-1,7.22646E-1,5.3496706E-1,3.6975372E-1,-3.687954E-2,1.7083979E-1,-2.0687203E-1,7.234101E-2,6.7243177E-1,3.6858028E-1,6.028452E-2,3.1686872E-1,2.1172915E-2,1.512519E-1,1.2167417E-1,3.0469053E0,-3.3169825E-2,4.5126792E-2,8.367781E-2,-3.0784031E-2,-9.192449E-2,8.1330575E-3,8.562628E-2,3.5912883E-1,6.3865975E-2,2.1502103E-1,4.0014633E-3,-1.7914122E-1,-1.1108064E-1,4.7459725E-2,3.1955633E-2,-6.2475763E-2,6.763257E-2,3.485481E-1,5.2377945E-3,-6.307565E-2,-1.2532009E-1,-4.4933423E-2,6.3204765E-2,-7.076444E-2,2.7453238E-1,-6.0824133E-2,6.1442822E-2,-1.4154603E-1,1.01311445E-1,-1.9749252E0,7.1671116E-4,-1.5139061E-1,2.0621143E-2,9.810654E-2,8.052874E-2,-3.710929E-2,2.2787707E-1,-6.9377387E-1,1.7500873E-1,1.3722575E-1,1.2742272E-1,7.872487E-2,8.400447E-3,-6.049388E-2,6.9203E-2,-6.281058E-3,-8.59129E-2,-1.358648E-2,-4.6086572E-2,4.7739085E-2,3.1434542E-1,1.6392556E-1,8.281462E-2,1.4615114E-1,4.209518E-2,-6.2610984E-2,4.816188E-3,1.0844996E-1],"categories":[],"categories_nodes":[],"categories_segments":[],"categories_sizes":[],"default_left":[0,0,0,0,0,0,0,0,0,0,0,0,0,0,0,0,0,0,0,0,0,0,0,0,0,0,0,0,0,0,0,0,0,0,0,0,0,0,0,0,0,0,0,0,0,0,0,0,0,0,0,0,0,0,0,0,0,0,0,0,0,0,0,0,0,0,0,0,0,0,0,0,0,0,0,0,0,0,0,0,0,0,0,0,0,0,0,0,0,0,0,0,0,0,0,0,0,0,0,0,0,0,0,0,0,0,0,0,0,0,0,0,0,0,0,0,0,0,0,0,0,0,0,0,0],"id":11,"left_children":[1,3,5,7,9,11,13,15,17,19,21,23,25,27,29,31,33,35,37,39,41,43,45,47,49,51,53,55,57,59,61,63,65,67,69,71,73,75,77,79,81,83,-1,85,87,89,91,93,95,97,99,101,103,105,107,109,111,113,115,117,119,121,123,-1,-1,-1,-1,-1,-1,-1,-1,-1,-1,-1,-1,-1,-1,-1,-1,-1,-1,-1,-1,-1,-1,-1,-1,-1,-1,-1,-1,-1,-1,-1,-1,-1,-1,-1,-1,-1,-1,-1,-1,-1,-1,-1,-1,-1,-1,-1,-1,-1,-1,-1,-1,-1,-1,-1,-1,-1,-1,-1,-1,-1,-1],"loss_changes":[9.919276E3,4.9503257E3,4.787243E3,1.417274E3,3.7936719E3,1.1673418E3,3.6491133E3,1.0271017E3,8.2261743E2,2.0489043E3,1.4540938E3,3.8800366E2,4.604082E2,3.2294836E3,5.484507E2,5.333491E2,5.1602563E2,9.3022723E2,3.6975116E2,2.061168E3,2.947732E2,1.093291E3,5.428831E2,1.2524426E2,2.3637033E2,2.0171451E2,2.8890527E2,2.328374E3,1.368856E3,3.3676367E2,4.002843E2,3.0108905E2,3.602561E2,3.030631E2,3.1826538E2,5.9270056E2,2.9131403E2,2.1941199E2,2.2244638E2,1.6583535E3,5.3070044E2,2.1635281E2,0E0,8.773837E2,4.934541E2,2.0449622E2,2.5761182E2,1.7880225E2,1.295597E2,1.9543369E2,1.5039288E2,2.5320679E2,8.091696E1,8.186377E1,1.2104443E2,1.0148746E3,1.4348794E3,9.285764E2,4.5485748E2,2.3456885E2,1.505564E2,2.0299814E2,2.2994104E2,0E0,0E0,0E0,0E0,0E0,0E0,0E0,0E0,0E0,0E0,0E0,0E0,0E0,0E0,0E0,0E0,0E0,0E0,0E0,0E0,0E0,0E0,0E0,0E0,0E0,0E0,0E0,0E0,0E0,0E0,0E0,0E0,0E0,0E0,0E0,0E0,0E0,0E0,0E0,0E0,0E0,0E0,0E0,0E0,0E0,0E0,0E0,0E0,0E0,0E0,0E0,0E0,0E0,0E0,0E0,0E0,0E0,0E0,0E0,0E0,0E0,0E0],"parents":[2147483647,0,0,1,1,2,2,3,3,4,4,5,5,6,6,7,7,8,8,9,9,10,10,11,11,12,12,13,13,14,14,15,15,16,16,17,17,18,18,19,19,20,20,21,21,22,22,23,23,24,24,25,25,26,26,27,27,28,28,29,29,30,30,31,31,32,32,33,33,34,34,35,35,36,36,37,37,38,38,39,39,40,40,41,41,43,43,44,44,45,45,46,46,47,47,48,48,49,49,50,50,51,51,52,52,53,53,54,54,55,55,56,56,57,57,58,58,59,59,60,60,61,61,62,62],"right_children":[2,4,6,8,10,12,14,16,18,20,22,24,26,28,30,32,34,36,38,40,42,44,46,48,50,52,54,56,58,60,62,64,66,68,70,72,74,76,78,80,82,84,-1,86,88,90,92,94,96,98,100,102,104,106,108,110,112,114,116,118,120,122,124,-1,-1,-1,-1,-1,-1,-1,-1,-1,-1,-1,-1,-1,-1,-1,-1,-1,-1,-1,-1,-1,-1,-1,-1,-1,-1,-1,-1,-1,-1,-1,-1,-1,-1,-1,-1,-1,-1,-1,-1,-1,-1,-1,-1,-1,-1,-1,-1,-1,-1,-1,-1,-1,-1,-1,-1,-1,-1,-1,-1,-1,-1],"split_conditions":[1E0,1.6722357E-1,9.65E-1,9.746589E-4,1E0,1E0,1E0,1E0,1E0,1E0,1E0,9.625E-1,1E0,1E0,1E0,3.248863E-4,1E0,1E0,1E0,1E0,1E0,1E0,8.368773E-1,1E0,1E0,6.316427E-1,9.625E-1,1E0,1E0,1E0,1E0,1E0,1E0,1E0,1E0,1E0,9.705E-1,9.705E-1,1E0,1E0,9.805E-1,8.7181044E-1,2.5817246E0,1E0,1E0,1E0,1E0,1E0,1E0,6.497726E-4,1E0,3.8927704E-1,1E0,1E0,1E0,1E0,1E0,1E0,1E0,5.0270922E-2,1E0,1E0,1E0,2.1172915E-2,1.512519E-1,1.2167417E-1,3.0469053E0,-3.3169825E-2,4.5126792E-2,8.367781E-2,-3.0784031E-2,-9.192449E-2,8.1330575E-3,8.562628E-2,3.5912883E-1,6.3865975E-2,2.1502103E-1,4.0014633E-3,-1.7914122E-1,-1.1108064E-1,4.7459725E-2,3.1955633E-2,-6.2475763E-2,6.763257E-2,3.485481E-1,5.2377945E-3,-6.307565E-2,-1.2532009E-1,-4.4933423E-2,6.3204765E-2,-7.076444E-2,2.7453238E-1,-6.0824133E-2,6.1442822E-2,-1.4154603E-1,1.01311445E-1,-1.9749252E0,7.1671116E-4,-1.5139061E-1,2.0621143E-2,9.810654E-2,8.052874E-2,-3.710929E-2,2.2787707E-1,-6.9377387E-1,1.7500873E-1,1.3722575E-1,1.2742272E-1,7.872487E-2,8.400447E-3,-6.049388E-2,6.9203E-2,-6.281058E-3,-8.59129E-2,-1.358648E-2,-4.6086572E-2,4.7739085E-2,3.1434542E-1,1.6392556E-1,8.281462E-2,1.4615114E-1,4.209518E-2,-6.2610984E-2,4.816188E-3,1.0844996E-1],"split_indices":[135,2,8,5,21,9,179,267,553,265,40,8,195,451,263,5,550,478,267,81,141,50,2,195,530,3,8,21,403,427,555,387,462,339,292,106,8,8,162,352,8,2,0,482,326,445,353,28,227,5,370,2,543,501,127,103,50,387,555,6,387,526,21,0,0,0,0,0,0,0,0,0,0,0,0,0,0,0,0,0,0,0,0,0,0,0,0,0,0,0,0,0,0,0,0,0,0,0,0,0,0,0,0,0,0,0,0,0,0,0,0,0,0,0,0,0,0,0,0,0,0,0,0,0,0],"split_type":[0,0,0,0,0,0,0,0,0,0,0,0,0,0,0,0,0,0,0,0,0,0,0,0,0,0,0,0,0,0,0,0,0,0,0,0,0,0,0,0,0,0,0,0,0,0,0,0,0,0,0,0,0,0,0,0,0,0,0,0,0,0,0,0,0,0,0,0,0,0,0,0,0,0,0,0,0,0,0,0,0,0,0,0,0,0,0,0,0,0,0,0,0,0,0,0,0,0,0,0,0,0,0,0,0,0,0,0,0,0,0,0,0,0,0,0,0,0,0,0,0,0,0,0,0],"sum_hessian":[8.5554456E5,4.1071806E5,4.448265E5,1.0764114E5,3.0307694E5,8.4125805E4,3.607007E5,6.696065E4,4.0680496E4,1.6760733E5,1.354696E5,3.245775E4,5.166806E4,3.1544575E5,4.5254938E4,3.0207566E4,3.6753086E4,2.8559807E4,1.21206875E4,1.6100902E5,6.5983174E3,1.2073447E5,1.4735124E4,1.5513375E4,1.6944373E4,9.258887E3,4.240917E4,2.1997234E5,9.547342E4,1.8701352E4,2.6553584E4,1.2309908E4,1.7897658E4,2.3090848E4,1.3662235E4,2.6777209E4,1.7825973E3,7.475692E3,4.6449956E3,1.3868189E5,2.2327123E4,6.5950796E3,3.2378244E0,9.251525E4,2.8219225E4,1.29754375E4,1.7596868E3,3.996973E3,1.1516402E4,3.3558916E3,1.3588482E4,8.553942E3,7.0494476E2,2.1883438E4,2.0525732E4,9.493322E4,1.2503913E5,7.228185E4,2.3191568E4,4.9698965E3,1.3731456E4,9.427208E3,1.7126377E4,1.0418425E4,1.8914829E3,1.7894865E4,2.7916272E0,1.707469E4,6.0161587E3,1.0929874E4,2.7323613E3,1.9437256E4,7.339954E3,1.3037313E3,4.7886594E2,6.478975E3,9.967166E2,3.942638E3,7.0235767E2,1.3246575E5,6.2161367E3,1.3410215E4,8.916908E3,6.3392554E3,2.5582439E2,7.022418E4,2.2291064E4,1.1844856E4,1.6374368E4,1.1853697E4,1.1217402E3,1.5216233E3,2.3806348E2,3.5592612E3,4.3771167E2,1.1514694E4,1.7079415E0,2.1934224E3,1.1624692E3,1.0735548E4,2.8529346E3,6.328841E3,2.2251013E3,6.972082E2,7.7365456E0,1.3470422E4,8.413016E3,1.3570601E4,6.9551323E3,6.811289E4,2.6820328E4,9.530309E4,2.9736035E4,4.844474E4,2.3837113E4,6.435487E3,1.6756082E4,1.2472114E3,3.7226853E3,7.7150293E3,6.0164263E3,7.2658545E3,2.1613533E3,2.2128792E3,1.4913498E4],"tree_param":{"num_deleted":"0","num_feature":"565","num_nodes":"125","size_leaf_vector":"0"}},{"base_weights":[-4.0804682E-4,-3.211784E-2,2.7432486E-1,-7.4909344E-2,1.7341428E-1,3.2729712E-1,1.11935996E-1,-9.996669E-3,-1.9415405E-1,2.527661E-1,-6.1883017E-2,4.5419577E-1,2.6530537E-1,7.868227E-2,6.5536857E-1,-1.9551113E-1,2.664695E-2,-2.2154567E-1,2.032833E-1,3.0953875E-1,5.6932192E-2,-2.0783922E-1,9.473787E-2,5.9163845E-1,3.733959E-1,1.9958028E-1,3.8148913E-1,5.64226E-2,5.4903346E-1,6.6776437E-1,-1.0337518E0,7.291332E-2,-2.658836E-1,7.570809E-2,-1.3650939E-1,-2.517617E-1,8.257728E-2,2.5141746E-1,-1.7427179E-1,3.6760297E-1,1.6558886E-1,1.3558769E-1,-1.5344797E-1,5.7853833E-3,-3.149313E-1,2.4222348E-2,3.5319558E-1,6.142483E-1,-1.0199994E0,2.2308668E-1,4.8086363E-1,2.2135797E-1,-1.9088697E-1,3.6318004E-1,8.957258E-1,2.0183332E-2,3.8370872E-1,6.931305E-1,-1.7944066E-1,-5.3324395E-1,7.095529E-1,2.8921613E-3,1.12036034E-1,-1.0132213E-1,9.058334E-3,4.0022507E-2,-1.864244E-2,-4.7714297E-2,4.6990324E-2,-8.652303E-2,-1.0847262E-3,1.1392263E-1,-4.231412E-3,8.559914E-2,-5.9057474E-2,-2.614192E-2,-4.0266755E-1,1.2138942E-1,3.7008945E-2,2.246591E-2,1.00287385E-1,1.3280124E-2,8.948299E-2,-9.826292E-2,4.1992117E-2,6.4781625E-3,-7.507283E-1,-6.1812934E-2,-1.7162839E-1,-2.9845338E-2,6.260286E-2,1.5652902E-1,2.534566E-2,1.9863935E-1,3.4293767E-2,-3.9886087E-1,3.2613558E-1,8.369402E-2,-1.6100785E-1,1.2392352E-1,1.8981113E-1,2.7626293E-2,8.54219E-2,-2.3699751E-1,-1.00670615E-2,-2.9414224E-3,1.1512322E-1,2.5104806E-1,2.1157315E0,-5.6950364E-2,2.6801473E-2,1.2531896E-1,-7.1988404E-1,1.3471207E-1,2.9442698E-1,1.6878922E-2,-1.2074889E0,-4.6319044E-1,8.518434E-1,2.968219E-1,1.7749096E-1],"categories":[],"categories_nodes":[],"categories_segments":[],"categories_sizes":[],"default_left":[0,0,0,0,0,0,0,0,0,0,0,0,0,0,0,0,0,0,0,0,0,0,0,0,0,0,0,0,0,0,0,0,0,0,0,0,0,0,0,0,0,0,0,0,0,0,0,0,0,0,0,0,0,0,0,0,0,0,0,0,0,0,0,0,0,0,0,0,0,0,0,0,0,0,0,0,0,0,0,0,0,0,0,0,0,0,0,0,0,0,0,0,0,0,0,0,0,0,0,0,0,0,0,0,0,0,0,0,0,0,0,0,0,0,0,0,0,0,0,0,0],"id":12,"left_children":[1,3,5,7,9,11,13,15,17,19,21,23,25,27,29,31,33,35,37,39,41,43,45,47,49,51,53,55,57,59,-1,61,63,65,67,69,71,73,75,77,79,81,83,85,87,89,91,93,95,97,99,101,103,105,107,109,111,113,115,117,119,-1,-1,-1,-1,-1,-1,-1,-1,-1,-1,-1,-1,-1,-1,-1,-1,-1,-1,-1,-1,-1,-1,-1,-1,-1,-1,-1,-1,-1,-1,-1,-1,-1,-1,-1,-1,-1,-1,-1,-1,-1,-1,-1,-1,-1,-1,-1,-1,-1,-1,-1,-1,-1,-1,-1,-1,-1,-1,-1,-1],"loss_changes":[7.2809375E3,6.589959E3,7.4389307E2,4.800375E3,2.4108037E3,5.128628E2,3.8438568E2,2.729825E3,2.3798057E3,1.0734858E3,7.444064E2,2.3743115E2,3.3447388E2,2.0986845E2,6.4657166E1,1.251199E3,2.6842185E3,1.879292E3,2.561974E2,6.2559863E2,3.5913226E2,3.8561932E2,2.862813E2,2.8926172E2,2.1763416E2,2.3800232E2,1.487002E2,2.2704187E2,9.520657E1,6.179431E1,0E0,2.6163528E2,1.1164963E3,2.0506116E3,5.1221875E2,1.6917139E3,5.31029E2,1.9011145E2,1.6213567E2,4.8233447E2,3.2922253E2,2.3467435E2,3.0175342E2,2.2326447E2,3.1427185E2,2.8165134E2,1.5246832E2,1.8693433E2,7.3167336E1,2.3887796E2,8.0628296E1,2.171477E2,1.3936514E2,1.1724597E2,1.9118317E2,2.503467E2,1.8170215E2,5.2787964E1,1.3652977E2,1.4659502E2,3.8452515E1,0E0,0E0,0E0,0E0,0E0,0E0,0E0,0E0,0E0,0E0,0E0,0E0,0E0,0E0,0E0,0E0,0E0,0E0,0E0,0E0,0E0,0E0,0E0,0E0,0E0,0E0,0E0,0E0,0E0,0E0,0E0,0E0,0E0,0E0,0E0,0E0,0E0,0E0,0E0,0E0,0E0,0E0,0E0,0E0,0E0,0E0,0E0,0E0,0E0,0E0,0E0,0E0,0E0,0E0,0E0,0E0,0E0,0E0,0E0,0E0],"parents":[2147483647,0,0,1,1,2,2,3,3,4,4,5,5,6,6,7,7,8,8,9,9,10,10,11,11,12,12,13,13,14,14,15,15,16,16,17,17,18,18,19,19,20,20,21,21,22,22,23,23,24,24,25,25,26,26,27,27,28,28,29,29,31,31,32,32,33,33,34,34,35,35,36,36,37,37,38,38,39,39,40,40,41,41,42,42,43,43,44,44,45,45,46,46,47,47,48,48,49,49,50,50,51,51,52,52,53,53,54,54,55,55,56,56,57,57,58,58,59,59,60,60],"right_children":[2,4,6,8,10,12,14,16,18,20,22,24,26,28,30,32,34,36,38,40,42,44,46,48,50,52,54,56,58,60,-1,62,64,66,68,70,72,74,76,78,80,82,84,86,88,90,92,94,96,98,100,102,104,106,108,110,112,114,116,118,120,-1,-1,-1,-1,-1,-1,-1,-1,-1,-1,-1,-1,-1,-1,-1,-1,-1,-1,-1,-1,-1,-1,-1,-1,-1,-1,-1,-1,-1,-1,-1,-1,-1,-1,-1,-1,-1,-1,-1,-1,-1,-1,-1,-1,-1,-1,-1,-1,-1,-1,-1,-1,-1,-1,-1,-1,-1,-1,-1,-1],"split_conditions":[1E0,1E0,1E0,6.497726E-4,1E0,1E0,1E0,2.6773761E-3,1E0,1E0,1E0,1E0,1E0,1E0,1E0,9.68E-1,1E0,1E0,1E0,1E0,1E0,9.695E-1,1E0,8.984103E-1,1E0,1E0,1E0,8.330053E-1,1E0,1E0,-1.0337518E0,3.248863E-4,1E0,1E0,1E0,1E0,1E0,1E0,8.376367E-1,1E0,1E0,1E0,1E0,9.754501E-1,1E0,1.2048192E-2,1E0,1E0,1E0,9.805E-1,9.71E-1,1E0,1E0,1E0,8.576998E-2,1E0,1E0,1E0,1E0,1E0,1E0,2.8921613E-3,1.12036034E-1,-1.0132213E-1,9.058334E-3,4.0022507E-2,-1.864244E-2,-4.7714297E-2,4.6990324E-2,-8.652303E-2,-1.0847262E-3,1.1392263E-1,-4.231412E-3,8.559914E-2,-5.9057474E-2,-2.614192E-2,-4.0266755E-1,1.2138942E-1,3.7008945E-2,2.246591E-2,1.00287385E-1,1.3280124E-2,8.948299E-2,-9.826292E-2,4.1992117E-2,6.4781625E-3,-7.507283E-1,-6.1812934E-2,-1.7162839E-1,-2.9845338E-2,6.260286E-2,1.5652902E-1,2.534566E-2,1.9863935E-1,3.4293767E-2,-3.9886087E-1,3.2613558E-1,8.369402E-2,-1.6100785E-1,1.2392352E-1,1.8981113E-1,2.7626293E-2,8.54219E-2,-2.3699751E-1,-1.00670615E-2,-2.9414224E-3,1.1512322E-1,2.5104806E-1,2.1157315E0,-5.6950364E-2,2.6801473E-2,1.2531896E-1,-7.1988404E-1,1.3471207E-1,2.9442698E-1,1.6878922E-2,-1.2074889E0,-4.6319044E-1,8.518434E-1,2.968219E-1,1.7749096E-1],"split_indices":[521,334,292,5,233,267,58,1,265,482,352,262,339,337,313,8,240,478,514,27,443,8,403,3,555,276,133,3,162,135,0,5,81,27,552,81,528,233,2,208,352,387,256,4,443,1,443,49,442,8,8,21,135,195,5,555,564,507,318,44,550,0,0,0,0,0,0,0,0,0,0,0,0,0,0,0,0,0,0,0,0,0,0,0,0,0,0,0,0,0,0,0,0,0,0,0,0,0,0,0,0,0,0,0,0,0,0,0,0,0,0,0,0,0,0,0,0,0,0,0,0],"split_type":[0,0,0,0,0,0,0,0,0,0,0,0,0,0,0,0,0,0,0,0,0,0,0,0,0,0,0,0,0,0,0,0,0,0,0,0,0,0,0,0,0,0,0,0,0,0,0,0,0,0,0,0,0,0,0,0,0,0,0,0,0,0,0,0,0,0,0,0,0,0,0,0,0,0,0,0,0,0,0,0,0,0,0,0,0,0,0,0,0,0,0,0,0,0,0,0,0,0,0,0,0,0,0,0,0,0,0,0,0,0,0,0,0,0,0,0,0,0,0,0,0],"sum_hessian":[8.3576106E5,7.4927975E5,8.648132E4,6.2016325E5,1.2911651E5,6.5208793E4,2.127253E4,4.015658E5,2.1859742E5,9.655437E4,3.2562145E4,2.1398727E4,4.3810066E4,2.004696E4,1.2255687E3,6.623512E4,3.3533072E5,2.0450338E5,1.409405E4,7.4853586E4,2.1700781E4,1.6854748E4,1.57073955E4,7.920103E3,1.3478623E4,2.798288E4,1.5827185E4,1.9142166E4,9.047955E2,1.2227102E3,2.8584425E0,1.3757874E4,5.2477242E4,2.5780825E5,7.752245E4,1.8602144E5,1.8481934E4,1.2500684E4,1.593367E3,5.3337574E4,2.1516012E4,1.579559E4,5.9051914E3,5.6283687E3,1.1226381E4,1.2341369E4,3.3660266E3,7.811139E3,1.08964134E2,5.6205483E3,7.858075E3,2.650504E4,1.4778435E3,1.52846875E4,5.424964E2,1.723487E4,1.907296E3,7.5541736E2,1.4937808E2,4.071765E1,1.1819926E3,1.1366016E4,2.3918577E3,4.2228445E4,1.0248799E4,1.8173761E5,7.607064E4,7.1988125E4,5.534326E3,1.6208338E5,2.3938066E4,4.5362485E3,1.3945686E4,1.1621831E4,8.788526E2,1.4837502E3,1.0961665E2,4.6315215E4,7.022359E3,1.3993748E4,7.522263E3,1.0117631E4,5.6779595E3,3.7061282E3,2.1990632E3,5.594102E3,3.4266506E1,7.8881694E3,3.3382112E3,7.3873735E3,4.953995E3,2.0678662E3,1.2981604E3,7.1280986E3,6.8304047E2,9.532924E1,1.36348915E1,